{
  "metadata": {
    "transformers_version": "4.50.3",
    "torch_version": "2.11.0+cu130",
    "python_platform": "Linux-6.6.87.2-microsoft-standard-WSL2-x86_64-with-glibc2.41",
    "generated_at": "2026-05-07T14:03:51.647573+00:00",
    "rng_seed": 42,
    "tiny_config": {
      "vocab_size": 64,
      "hidden_size": 32,
      "intermediate_size": 64,
      "num_hidden_layers": 2,
      "num_attention_heads": 4,
      "num_key_value_heads": 2,
      "rms_norm_eps": 1e-05,
      "rope_theta": 10000.0,
      "max_position_embeddings": 64
    }
  },
  "fixtures": [
    {
      "op": "rms_norm",
      "tag": "1d_token",
      "input_shape": [
        32
      ],
      "weight": [
        0.03853830322623253,
        0.02974568121135235,
        0.018014343455433846,
        -0.042110417038202286,
        0.01356836874037981,
        -0.024690896272659302,
        -0.0008613495156168938,
        -0.032093338668346405,
        -0.015042705461382866,
        0.03297445923089981,
        -0.007849573157727718,
        -0.028072141110897064,
        -0.014557626098394394,
        -0.01118860300630331,
        -0.01537677738815546,
        0.01524890772998333,
        0.03284633904695511,
        -0.0031919493339955807,
        -0.009947950951755047,
        0.008791784755885601,
        -0.015162622556090355,
        0.021566351875662804,
        0.01601601019501686,
        0.033612411469221115,
        0.025582486763596535,
        0.025928456336259842,
        0.012209329754114151,
        0.026694754138588905,
        -0.004632486496120691,
        0.0008351898286491632,
        -0.005031505599617958,
        0.017197169363498688
      ],
      "eps": 1e-05,
      "input": [
        -0.008301806636154652,
        -0.2333974689245224,
        1.0454487800598145,
        0.30745142698287964,
        -0.2810477912425995,
        -0.20712560415267944,
        -0.6500458121299744,
        -0.0505978949368,
        -0.5499728918075562,
        -0.23432715237140656,
        -0.4200194776058197,
        0.34341591596603394,
        -0.03388270363211632,
        -0.044297538697719574,
        -0.15617689490318298,
        -0.17760956287384033,
        0.3571237325668335,
        0.20991480350494385,
        -0.883612871170044,
        -0.24979674816131592,
        0.15413397550582886,
        -0.1473345011472702,
        -0.3831135034561157,
        -0.49807894229888916,
        0.3890593349933624,
        -0.34277889132499695,
        -0.36627820134162903,
        0.1502148061990738,
        -0.18149907886981964,
        0.7911148071289062,
        -0.2214752584695816,
        0.9231067299842834
      ],
      "expected": [
        -0.000742536096367985,
        -0.016112852841615677,
        0.043709270656108856,
        -0.030048198997974396,
        -0.008850344456732273,
        0.011869242414832115,
        0.0012994983699172735,
        0.0037687704898416996,
        0.01920081116259098,
        -0.017932988703250885,
        0.007651874329894781,
        -0.022374240681529045,
        0.001144777168519795,
        0.0011502912966534495,
        0.005573582835495472,
        -0.006285754963755608,
        0.027224384248256683,
        -0.0015550752868875861,
        0.020400838926434517,
        -0.005097018554806709,
        -0.005424066912382841,
        -0.0073745157569646835,
        -0.014240792021155357,
        -0.03885529562830925,
        0.02309994585812092,
        -0.020627332851290703,
        -0.010378994047641754,
        0.009306599386036396,
        0.0019513759762048721,
        0.0015334762865677476,
        0.00258627999573946,
        0.03684353083372116
      ]
    },
    {
      "op": "rms_norm",
      "tag": "2d_seq",
      "input_shape": [
        4,
        32
      ],
      "weight": [
        0.03853830322623253,
        0.02974568121135235,
        0.018014343455433846,
        -0.042110417038202286,
        0.01356836874037981,
        -0.024690896272659302,
        -0.0008613495156168938,
        -0.032093338668346405,
        -0.015042705461382866,
        0.03297445923089981,
        -0.007849573157727718,
        -0.028072141110897064,
        -0.014557626098394394,
        -0.01118860300630331,
        -0.01537677738815546,
        0.01524890772998333,
        0.03284633904695511,
        -0.0031919493339955807,
        -0.009947950951755047,
        0.008791784755885601,
        -0.015162622556090355,
        0.021566351875662804,
        0.01601601019501686,
        0.033612411469221115,
        0.025582486763596535,
        0.025928456336259842,
        0.012209329754114151,
        0.026694754138588905,
        -0.004632486496120691,
        0.0008351898286491632,
        -0.005031505599617958,
        0.017197169363498688
      ],
      "eps": 1e-05,
      "input": [
        -0.008301806636154652,
        -0.2333974689245224,
        1.0454487800598145,
        0.30745142698287964,
        -0.2810477912425995,
        -0.20712560415267944,
        -0.6500458121299744,
        -0.0505978949368,
        -0.5499728918075562,
        -0.23432715237140656,
        -0.4200194776058197,
        0.34341591596603394,
        -0.03388270363211632,
        -0.044297538697719574,
        -0.15617689490318298,
        -0.17760956287384033,
        0.3571237325668335,
        0.20991480350494385,
        -0.883612871170044,
        -0.24979674816131592,
        0.15413397550582886,
        -0.1473345011472702,
        -0.3831135034561157,
        -0.49807894229888916,
        0.3890593349933624,
        -0.34277889132499695,
        -0.36627820134162903,
        0.1502148061990738,
        -0.18149907886981964,
        0.7911148071289062,
        -0.2214752584695816,
        0.9231067299842834,
        -0.3557289242744446,
        0.5212622284889221,
        -0.38090625405311584,
        -0.2415105253458023,
        -0.3885303735733032,
        -0.22419457137584686,
        -0.5834118127822876,
        0.2502785921096802,
        0.6625490784645081,
        -0.5813345313072205,
        -1.059317946434021,
        0.2734876871109009,
        -0.5833763480186462,
        -0.5099617838859558,
        0.8141279816627502,
        0.17376896739006042,
        -0.059562139213085175,
        -0.7707719206809998,
        0.32102832198143005,
        0.7507939338684082,
        -0.09773025661706924,
        0.37188223004341125,
        0.6805643439292908,
        0.39648374915122986,
        0.2388526350259781,
        0.4624216556549072,
        0.4420590102672577,
        0.39044487476348877,
        0.23318012058734894,
        -1.1309374570846558,
        0.2686832547187805,
        -0.400114506483078,
        0.8357616662979126,
        -0.17981243133544922,
        -1.075647234916687,
        -0.6795931458473206,
        -0.36013898253440857,
        -0.28396081924438477,
        -0.2719014585018158,
        0.9246076345443726,
        -0.004268462769687176,
        -0.20829220116138458,
        0.2372290939092636,
        -0.2197648584842682,
        -0.3780035078525543,
        0.5681337714195251,
        0.6378076076507568,
        0.08209071308374405,
        1.357996940612793,
        0.4045136868953705,
        -0.5348545908927917,
        -0.09952448308467865,
        -0.49432069063186646,
        -1.076769232749939,
        0.19561909139156342,
        0.7609008550643921,
        -0.2664567232131958,
        0.06593051552772522,
        -0.14829161763191223,
        -0.16624492406845093,
        -0.22245259582996368,
        -0.09744298458099365,
        -0.04477282613515854,
        -0.22229254245758057,
        -0.6017813682556152,
        -0.4249156415462494,
        -0.09172691404819489,
        -0.37319061160087585,
        0.3571015000343323,
        -0.30689653754234314,
        0.40093961358070374,
        0.9494173526763916,
        -0.11390083283185959,
        -0.6731781959533691,
        0.4587988257408142,
        0.2031339406967163,
        0.29138287901878357,
        -0.9013609886169434,
        1.1006897687911987,
        -0.09361925721168518,
        0.027868902310729027,
        0.1270202249288559,
        0.5091479420661926,
        -0.04120178148150444,
        -0.039527516812086105,
        -0.10447367280721664,
        -0.17211611568927765,
        0.907115638256073,
        -0.6375737190246582,
        -0.8278318047523499,
        -0.04704073444008827,
        -0.6957381367683411,
        -0.15059955418109894,
        0.19405795633792877,
        0.33679747581481934,
        -1.1266839504241943
      ],
      "expected": [
        -0.000742536096367985,
        -0.016112852841615677,
        0.043709270656108856,
        -0.030048198997974396,
        -0.008850344456732273,
        0.011869242414832115,
        0.0012994983699172735,
        0.0037687704898416996,
        0.01920081116259098,
        -0.017932988703250885,
        0.007651874329894781,
        -0.022374240681529045,
        0.001144777168519795,
        0.0011502912966534495,
        0.005573582835495472,
        -0.006285754963755608,
        0.027224384248256683,
        -0.0015550752868875861,
        0.020400838926434517,
        -0.005097018554806709,
        -0.005424066912382841,
        -0.0073745157569646835,
        -0.014240792021155357,
        -0.03885529562830925,
        0.02309994585812092,
        -0.020627332851290703,
        -0.010378994047641754,
        0.009306599386036396,
        0.0019513759762048721,
        0.0015334762865677476,
        0.00258627999573946,
        0.03684353083372116,
        -0.02630656771361828,
        0.029753128066658974,
        -0.013167064636945724,
        0.019515424966812134,
        -0.01011591125279665,
        0.010622197762131691,
        0.0009642885997891426,
        -0.015413137152791023,
        -0.019124777987599373,
        -0.036783769726753235,
        0.015956027433276176,
        -0.014732137322425842,
        0.016296403482556343,
        0.0109487846493721,
        -0.024022070690989494,
        0.005084677133709192,
        -0.0037541333585977554,
        0.004721003118902445,
        -0.006128150504082441,
        0.012666312977671623,
        0.002843516878783703,
        0.015389855019748211,
        0.020915871486067772,
        0.025572754442691803,
        0.011725334450602531,
        0.023007385432720184,
        0.010356773622334003,
        0.02000037208199501,
        -0.002072803443297744,
        -0.001812492380850017,
        -0.0025941256899386644,
        -0.013203640468418598,
        0.06047704443335533,
        -0.01004290021955967,
        -0.03638344630599022,
        0.05373460426926613,
        -0.009175152517855167,
        0.013164695352315903,
        0.00043975061271339655,
        -0.055717021226882935,
        0.00012056270497851074,
        -0.012896331958472729,
        -0.003496467834338546,
        0.011583753861486912,
        0.010332416743040085,
        -0.011935537680983543,
        -0.018414949998259544,
        0.0023504351265728474,
        0.08375317603349686,
        -0.002424402628093958,
        0.009990446269512177,
        -0.0016429430106654763,
        0.0140733877196908,
        -0.043602846562862396,
        0.005882760044187307,
        0.04802233725786209,
        -0.012799262069165707,
        0.003209805116057396,
        -0.0033995697740465403,
        -0.008332778699696064,
        0.0019349384820088744,
        -0.00015280983643606305,
        0.00042298794141970575,
        -0.007177899591624737,
        -0.04379349946975708,
        -0.02386738918721676,
        -0.00312027963809669,
        0.02967553399503231,
        0.009149505756795406,
        0.014308929443359375,
        -0.0006521337782032788,
        -0.057537417858839035,
        0.003235423471778631,
        -0.04191659763455391,
        -0.006800591014325619,
        -0.01076803170144558,
        -0.00801000650972128,
        0.01904376968741417,
        -0.031960129737854004,
        -0.0026957662776112556,
        0.0017285627545788884,
        -0.000765609263908118,
        -0.009564359672367573,
        -0.0006840240093879402,
        0.001131754252128303,
        -0.004254630766808987,
        -0.005205400753766298,
        0.05757588893175125,
        -0.030800053849816322,
        -0.040531910955905914,
        -0.0010845365468412638,
        -0.035071153193712234,
        0.0013173954794183373,
        0.0003060518065467477,
        -0.003199964063242078,
        -0.03658789023756981
      ]
    },
    {
      "op": "rms_norm",
      "tag": "3d_batch_seq",
      "input_shape": [
        1,
        4,
        32
      ],
      "weight": [
        0.03853830322623253,
        0.02974568121135235,
        0.018014343455433846,
        -0.042110417038202286,
        0.01356836874037981,
        -0.024690896272659302,
        -0.0008613495156168938,
        -0.032093338668346405,
        -0.015042705461382866,
        0.03297445923089981,
        -0.007849573157727718,
        -0.028072141110897064,
        -0.014557626098394394,
        -0.01118860300630331,
        -0.01537677738815546,
        0.01524890772998333,
        0.03284633904695511,
        -0.0031919493339955807,
        -0.009947950951755047,
        0.008791784755885601,
        -0.015162622556090355,
        0.021566351875662804,
        0.01601601019501686,
        0.033612411469221115,
        0.025582486763596535,
        0.025928456336259842,
        0.012209329754114151,
        0.026694754138588905,
        -0.004632486496120691,
        0.0008351898286491632,
        -0.005031505599617958,
        0.017197169363498688
      ],
      "eps": 1e-05,
      "input": [
        -0.008301806636154652,
        -0.2333974689245224,
        1.0454487800598145,
        0.30745142698287964,
        -0.2810477912425995,
        -0.20712560415267944,
        -0.6500458121299744,
        -0.0505978949368,
        -0.5499728918075562,
        -0.23432715237140656,
        -0.4200194776058197,
        0.34341591596603394,
        -0.03388270363211632,
        -0.044297538697719574,
        -0.15617689490318298,
        -0.17760956287384033,
        0.3571237325668335,
        0.20991480350494385,
        -0.883612871170044,
        -0.24979674816131592,
        0.15413397550582886,
        -0.1473345011472702,
        -0.3831135034561157,
        -0.49807894229888916,
        0.3890593349933624,
        -0.34277889132499695,
        -0.36627820134162903,
        0.1502148061990738,
        -0.18149907886981964,
        0.7911148071289062,
        -0.2214752584695816,
        0.9231067299842834,
        -0.3557289242744446,
        0.5212622284889221,
        -0.38090625405311584,
        -0.2415105253458023,
        -0.3885303735733032,
        -0.22419457137584686,
        -0.5834118127822876,
        0.2502785921096802,
        0.6625490784645081,
        -0.5813345313072205,
        -1.059317946434021,
        0.2734876871109009,
        -0.5833763480186462,
        -0.5099617838859558,
        0.8141279816627502,
        0.17376896739006042,
        -0.059562139213085175,
        -0.7707719206809998,
        0.32102832198143005,
        0.7507939338684082,
        -0.09773025661706924,
        0.37188223004341125,
        0.6805643439292908,
        0.39648374915122986,
        0.2388526350259781,
        0.4624216556549072,
        0.4420590102672577,
        0.39044487476348877,
        0.23318012058734894,
        -1.1309374570846558,
        0.2686832547187805,
        -0.400114506483078,
        0.8357616662979126,
        -0.17981243133544922,
        -1.075647234916687,
        -0.6795931458473206,
        -0.36013898253440857,
        -0.28396081924438477,
        -0.2719014585018158,
        0.9246076345443726,
        -0.004268462769687176,
        -0.20829220116138458,
        0.2372290939092636,
        -0.2197648584842682,
        -0.3780035078525543,
        0.5681337714195251,
        0.6378076076507568,
        0.08209071308374405,
        1.357996940612793,
        0.4045136868953705,
        -0.5348545908927917,
        -0.09952448308467865,
        -0.49432069063186646,
        -1.076769232749939,
        0.19561909139156342,
        0.7609008550643921,
        -0.2664567232131958,
        0.06593051552772522,
        -0.14829161763191223,
        -0.16624492406845093,
        -0.22245259582996368,
        -0.09744298458099365,
        -0.04477282613515854,
        -0.22229254245758057,
        -0.6017813682556152,
        -0.4249156415462494,
        -0.09172691404819489,
        -0.37319061160087585,
        0.3571015000343323,
        -0.30689653754234314,
        0.40093961358070374,
        0.9494173526763916,
        -0.11390083283185959,
        -0.6731781959533691,
        0.4587988257408142,
        0.2031339406967163,
        0.29138287901878357,
        -0.9013609886169434,
        1.1006897687911987,
        -0.09361925721168518,
        0.027868902310729027,
        0.1270202249288559,
        0.5091479420661926,
        -0.04120178148150444,
        -0.039527516812086105,
        -0.10447367280721664,
        -0.17211611568927765,
        0.907115638256073,
        -0.6375737190246582,
        -0.8278318047523499,
        -0.04704073444008827,
        -0.6957381367683411,
        -0.15059955418109894,
        0.19405795633792877,
        0.33679747581481934,
        -1.1266839504241943
      ],
      "expected": [
        -0.000742536096367985,
        -0.016112852841615677,
        0.043709270656108856,
        -0.030048198997974396,
        -0.008850344456732273,
        0.011869242414832115,
        0.0012994983699172735,
        0.0037687704898416996,
        0.01920081116259098,
        -0.017932988703250885,
        0.007651874329894781,
        -0.022374240681529045,
        0.001144777168519795,
        0.0011502912966534495,
        0.005573582835495472,
        -0.006285754963755608,
        0.027224384248256683,
        -0.0015550752868875861,
        0.020400838926434517,
        -0.005097018554806709,
        -0.005424066912382841,
        -0.0073745157569646835,
        -0.014240792021155357,
        -0.03885529562830925,
        0.02309994585812092,
        -0.020627332851290703,
        -0.010378994047641754,
        0.009306599386036396,
        0.0019513759762048721,
        0.0015334762865677476,
        0.00258627999573946,
        0.03684353083372116,
        -0.02630656771361828,
        0.029753128066658974,
        -0.013167064636945724,
        0.019515424966812134,
        -0.01011591125279665,
        0.010622197762131691,
        0.0009642885997891426,
        -0.015413137152791023,
        -0.019124777987599373,
        -0.036783769726753235,
        0.015956027433276176,
        -0.014732137322425842,
        0.016296403482556343,
        0.0109487846493721,
        -0.024022070690989494,
        0.005084677133709192,
        -0.0037541333585977554,
        0.004721003118902445,
        -0.006128150504082441,
        0.012666312977671623,
        0.002843516878783703,
        0.015389855019748211,
        0.020915871486067772,
        0.025572754442691803,
        0.011725334450602531,
        0.023007385432720184,
        0.010356773622334003,
        0.02000037208199501,
        -0.002072803443297744,
        -0.001812492380850017,
        -0.0025941256899386644,
        -0.013203640468418598,
        0.06047704443335533,
        -0.01004290021955967,
        -0.03638344630599022,
        0.05373460426926613,
        -0.009175152517855167,
        0.013164695352315903,
        0.00043975061271339655,
        -0.055717021226882935,
        0.00012056270497851074,
        -0.012896331958472729,
        -0.003496467834338546,
        0.011583753861486912,
        0.010332416743040085,
        -0.011935537680983543,
        -0.018414949998259544,
        0.0023504351265728474,
        0.08375317603349686,
        -0.002424402628093958,
        0.009990446269512177,
        -0.0016429430106654763,
        0.0140733877196908,
        -0.043602846562862396,
        0.005882760044187307,
        0.04802233725786209,
        -0.012799262069165707,
        0.003209805116057396,
        -0.0033995697740465403,
        -0.008332778699696064,
        0.0019349384820088744,
        -0.00015280983643606305,
        0.00042298794141970575,
        -0.007177899591624737,
        -0.04379349946975708,
        -0.02386738918721676,
        -0.00312027963809669,
        0.02967553399503231,
        0.009149505756795406,
        0.014308929443359375,
        -0.0006521337782032788,
        -0.057537417858839035,
        0.003235423471778631,
        -0.04191659763455391,
        -0.006800591014325619,
        -0.01076803170144558,
        -0.00801000650972128,
        0.01904376968741417,
        -0.031960129737854004,
        -0.0026957662776112556,
        0.0017285627545788884,
        -0.000765609263908118,
        -0.009564359672367573,
        -0.0006840240093879402,
        0.001131754252128303,
        -0.004254630766808987,
        -0.005205400753766298,
        0.05757588893175125,
        -0.030800053849816322,
        -0.040531910955905914,
        -0.0010845365468412638,
        -0.035071153193712234,
        0.0013173954794183373,
        0.0003060518065467477,
        -0.003199964063242078,
        -0.03658789023756981
      ]
    },
    {
      "op": "rope_apply",
      "tag": "seq1",
      "head_dim": 8,
      "rope_theta": 10000.0,
      "max_position_embeddings": 64,
      "num_heads": 4,
      "num_kv_heads": 2,
      "seq_len": 1,
      "q_shape": [
        1,
        4,
        1,
        8
      ],
      "k_shape": [
        1,
        2,
        1,
        8
      ],
      "q_input": [
        0.08435485512018204,
        -0.1315564215183258,
        0.0034579436760395765,
        0.04955565556883812,
        0.07141850888729095,
        0.1541130542755127,
        0.07824856787919998,
        -0.08609019219875336,
        0.134451761841774,
        -0.11542627960443497,
        -0.1522112488746643,
        0.09577242285013199,
        -0.24075551331043243,
        -0.0032957717776298523,
        -0.03837083280086517,
        0.212792307138443,
        0.14366064965724945,
        -0.00015223774244077504,
        0.09205732494592667,
        0.00775691494345665,
        0.09864996373653412,
        0.04197302833199501,
        -0.09261064231395721,
        0.1393807977437973,
        -0.26703017950057983,
        0.08981142193078995,
        -0.04509264603257179,
        -0.14466546475887299,
        -0.2313152402639389,
        0.18183593451976776,
        0.1466456651687622,
        0.033041443675756454
      ],
      "k_input": [
        -0.034600552171468735,
        -0.0668691024184227,
        -0.046731073409318924,
        0.10300612449645996,
        0.04169328510761261,
        0.0014157197438180447,
        -0.024209236726164818,
        0.022169167175889015,
        0.022917184978723526,
        0.06005910784006119,
        0.12183636426925659,
        -0.02180696651339531,
        0.07817687094211578,
        -0.05554208904504776,
        0.20487450063228607,
        0.13726000487804413
      ],
      "position_ids": [
        [
          0
        ]
      ],
      "cos": [
        1.0,
        1.0,
        1.0,
        1.0,
        1.0,
        1.0,
        1.0,
        1.0
      ],
      "sin": [
        0.0,
        0.0,
        0.0,
        0.0,
        0.0,
        0.0,
        0.0,
        0.0
      ],
      "q_rotated": [
        0.08435485512018204,
        -0.1315564215183258,
        0.0034579436760395765,
        0.04955565556883812,
        0.07141850888729095,
        0.1541130542755127,
        0.07824856787919998,
        -0.08609019219875336,
        0.134451761841774,
        -0.11542627960443497,
        -0.1522112488746643,
        0.09577242285013199,
        -0.24075551331043243,
        -0.0032957717776298523,
        -0.03837083280086517,
        0.212792307138443,
        0.14366064965724945,
        -0.00015223774244077504,
        0.09205732494592667,
        0.00775691494345665,
        0.09864996373653412,
        0.04197302833199501,
        -0.09261064231395721,
        0.1393807977437973,
        -0.26703017950057983,
        0.08981142193078995,
        -0.04509264603257179,
        -0.14466546475887299,
        -0.2313152402639389,
        0.18183593451976776,
        0.1466456651687622,
        0.033041443675756454
      ],
      "k_rotated": [
        -0.034600552171468735,
        -0.0668691024184227,
        -0.046731073409318924,
        0.10300612449645996,
        0.04169328510761261,
        0.0014157197438180447,
        -0.024209236726164818,
        0.022169167175889015,
        0.022917184978723526,
        0.06005910784006119,
        0.12183636426925659,
        -0.02180696651339531,
        0.07817687094211578,
        -0.05554208904504776,
        0.20487450063228607,
        0.13726000487804413
      ]
    },
    {
      "op": "rope_apply",
      "tag": "seq4",
      "head_dim": 8,
      "rope_theta": 10000.0,
      "max_position_embeddings": 64,
      "num_heads": 4,
      "num_kv_heads": 2,
      "seq_len": 4,
      "q_shape": [
        1,
        4,
        4,
        8
      ],
      "k_shape": [
        1,
        2,
        4,
        8
      ],
      "q_input": [
        0.08435485512018204,
        -0.1315564215183258,
        0.0034579436760395765,
        0.04955565556883812,
        0.07141850888729095,
        0.1541130542755127,
        0.07824856787919998,
        -0.08609019219875336,
        0.134451761841774,
        -0.11542627960443497,
        -0.1522112488746643,
        0.09577242285013199,
        -0.24075551331043243,
        -0.0032957717776298523,
        -0.03837083280086517,
        0.212792307138443,
        0.14366064965724945,
        -0.00015223774244077504,
        0.09205732494592667,
        0.00775691494345665,
        0.09864996373653412,
        0.04197302833199501,
        -0.09261064231395721,
        0.1393807977437973,
        -0.26703017950057983,
        0.08981142193078995,
        -0.04509264603257179,
        -0.14466546475887299,
        -0.2313152402639389,
        0.18183593451976776,
        0.1466456651687622,
        0.033041443675756454,
        -0.034600552171468735,
        -0.0668691024184227,
        -0.046731073409318924,
        0.10300612449645996,
        0.04169328510761261,
        0.0014157197438180447,
        -0.024209236726164818,
        0.022169167175889015,
        0.022917184978723526,
        0.06005910784006119,
        0.12183636426925659,
        -0.02180696651339531,
        0.07817687094211578,
        -0.05554208904504776,
        0.20487450063228607,
        0.13726000487804413,
        -0.008890057913959026,
        -0.04268309101462364,
        0.08326714485883713,
        -0.07601404935121536,
        -0.024974262341856956,
        -0.007216657977551222,
        0.10953537374734879,
        0.05359811708331108,
        0.01919683627784252,
        -0.20198595523834229,
        0.06420943140983582,
        -0.018490564078092575,
        -0.1215793639421463,
        -0.014673883095383644,
        -0.2452964335680008,
        0.15309026837348938,
        0.005277290008962154,
        0.12121768295764923,
        0.07130426168441772,
        -0.011868605390191078,
        -0.05170084908604622,
        0.030287563800811768,
        0.1340690702199936,
        0.002178649418056011,
        0.017542503774166107,
        -0.13636313378810883,
        -0.004111116752028465,
        -0.029416149482131004,
        -0.028432993218302727,
        0.01708526350557804,
        0.13538263738155365,
        -0.19442372024059296,
        -0.02385021187365055,
        0.04545225203037262,
        0.01928642950952053,
        -0.05858718231320381,
        -0.10068690776824951,
        0.05796783044934273,
        -0.06329146772623062,
        0.03541630133986473,
        -0.10019675642251968,
        -0.019356032833456993,
        -0.05148226022720337,
        -0.009646067395806313,
        0.0263825636357069,
        0.04339886084198952,
        0.18283627927303314,
        -0.019225889816880226,
        0.05429158732295036,
        -0.06940864026546478,
        -0.06331557035446167,
        -0.14933520555496216,
        0.06832487136125565,
        -0.05548514053225517,
        0.024087563157081604,
        -0.03119724988937378,
        -0.11815821379423141,
        -0.084833525121212,
        -0.0327640101313591,
        0.0008963356958702207,
        -0.06815081089735031,
        0.015096298418939114,
        0.02079109475016594,
        0.1848699450492859,
        -0.05030408129096031,
        0.04495546594262123,
        -0.22357550263404846,
        -0.026966217905282974,
        -0.11284031718969345,
        0.08826059848070145,
        0.05347219854593277,
        0.17531931400299072,
        0.169448122382164,
        -0.2166939526796341,
        0.09053383767604828,
        0.12373977154493332,
        0.013351707719266415,
        0.05373753234744072,
        -0.017983505502343178,
        -0.007389706559479237
      ],
      "k_input": [
        -0.030575860291719437,
        -0.05885608121752739,
        0.00819368939846754,
        0.04812384396791458,
        -0.1436595320701599,
        -0.06719531118869781,
        -0.02821424975991249,
        -0.02125752530992031,
        -0.04602156579494476,
        0.016195086762309074,
        0.00625832611694932,
        0.06794779002666473,
        -0.013160811737179756,
        -0.030503664165735245,
        -0.025695238262414932,
        -0.1333707571029663,
        0.09391536563634872,
        -0.07642566412687302,
        0.04955281317234039,
        0.1695203334093094,
        -0.005555079784244299,
        0.03494412824511528,
        -0.12367502599954605,
        0.22922752797603607,
        0.013461194932460785,
        0.04621203616261482,
        -0.005751225631684065,
        0.070492684841156,
        -0.12345047295093536,
        0.15247796475887299,
        -0.030331620946526527,
        0.18829034268856049,
        -0.03294285386800766,
        -0.029715558513998985,
        0.00778867257758975,
        0.03242527320981026,
        -0.006436984520405531,
        -0.00931037962436676,
        -0.0197584331035614,
        0.10320698469877243,
        0.025119109079241753,
        0.05246670916676521,
        0.2201794683933258,
        0.008343006484210491,
        -0.004390490707010031,
        0.015248148702085018,
        0.08181283622980118,
        0.09998410195112228,
        -0.18076200783252716,
        0.15120910108089447,
        -0.03830326721072197,
        0.017345638945698738,
        0.04363343492150307,
        0.09530030936002731,
        0.08106718957424164,
        -0.13215938210487366,
        0.08741991221904755,
        -0.08138991892337799,
        -0.013120015151798725,
        0.15759658813476562,
        0.04654970392584801,
        -0.18274639546871185,
        0.10581952333450317,
        -0.007823425345122814
      ],
      "position_ids": [
        [
          0,
          1,
          2,
          3
        ]
      ],
      "cos": [
        1.0,
        1.0,
        1.0,
        1.0,
        1.0,
        1.0,
        1.0,
        1.0,
        0.5403023362159729,
        0.9950041770935059,
        0.9999499917030334,
        0.9999995231628418,
        0.5403023362159729,
        0.9950041770935059,
        0.9999499917030334,
        0.9999995231628418,
        -0.416146844625473,
        0.9800665974617004,
        0.9998000264167786,
        0.9999980330467224,
        -0.416146844625473,
        0.9800665974617004,
        0.9998000264167786,
        0.9999980330467224,
        -0.9899924993515015,
        0.9553365111351013,
        0.9995500445365906,
        0.9999955296516418,
        -0.9899924993515015,
        0.9553365111351013,
        0.9995500445365906,
        0.9999955296516418
      ],
      "sin": [
        0.0,
        0.0,
        0.0,
        0.0,
        0.0,
        0.0,
        0.0,
        0.0,
        0.8414709568023682,
        0.0998334214091301,
        0.009999833069741726,
        0.0009999999310821295,
        0.8414709568023682,
        0.0998334214091301,
        0.009999833069741726,
        0.0009999999310821295,
        0.9092974066734314,
        0.19866932928562164,
        0.019998665899038315,
        0.0019999986980110407,
        0.9092974066734314,
        0.19866932928562164,
        0.019998665899038315,
        0.0019999986980110407,
        0.14112000167369843,
        0.29552021622657776,
        0.029995499178767204,
        0.0029999956022948027,
        0.14112000167369843,
        0.29552021622657776,
        0.029995499178767204,
        0.0029999956022948027
      ],
      "q_rotated": [
        0.08435485512018204,
        -0.1315564215183258,
        0.0034579436760395765,
        0.04955565556883812,
        0.07141850888729095,
        0.1541130542755127,
        0.07824856787919998,
        -0.08609019219875336,
        0.27523335814476013,
        -0.1145206019282341,
        -0.15181992948055267,
        0.09555958956480026,
        -0.01694350689649582,
        -0.014802707359194756,
        -0.03989100083708763,
        0.2128879725933075,
        -0.14948607981204987,
        -0.00848795659840107,
        0.09389100223779678,
        0.007478137966245413,
        0.08957738429307938,
        0.04110611602663994,
        -0.09075109660625458,
        0.1393960416316986,
        0.29700106382369995,
        0.032063938677310944,
        -0.04947106912732124,
        -0.14476394653320312,
        0.19131705164909363,
        0.2002556025981903,
        0.1452271044254303,
        0.0326072983443737,
        -0.034600552171468735,
        -0.0668691024184227,
        -0.046731073409318924,
        0.10300612449645996,
        0.04169328510761261,
        0.0014157197438180447,
        -0.024209236726164818,
        0.022169167175889015,
        -0.05340135842561722,
        0.06530401855707169,
        0.11978156119585037,
        -0.021944215521216393,
        0.06152328848838806,
        -0.049268703907728195,
        0.20608259737491608,
        0.13723814487457275,
        0.026408601552248,
        -0.04039854183793068,
        0.08105993270874023,
        -0.07612109929323196,
        0.002309253439307213,
        -0.015552626922726631,
        0.11117870360612869,
        0.05344598367810249,
        -0.001847442239522934,
        -0.18862812221050262,
        0.07153832912445068,
        -0.018949752673506737,
        0.12307172268629074,
        -0.07370942831039429,
        -0.24326007068157196,
        0.15303410589694977,
        0.005277290008962154,
        0.12121768295764923,
        0.07130426168441772,
        -0.011868605390191078,
        -0.05170084908604622,
        0.030287563800811768,
        0.1340690702199936,
        0.002178649418056011,
        0.03340379148721695,
        -0.13738755881786346,
        -0.005464714951813221,
        -0.029221711680293083,
        -0.0006009051576256752,
        0.0033863093703985214,
        0.13533475995063782,
        -0.19445304572582245,
        0.10147953033447266,
        0.03302980586886406,
        0.020548317581415176,
        -0.058657899498939514,
        0.020213602110743523,
        0.06584230065345764,
        -0.0628931075334549,
        0.03529905527830124,
        0.09547092765569687,
        -0.031316764652729034,
        -0.05694336071610451,
        -0.009588346816599369,
        -0.04025830700993538,
        0.03574042022228241,
        0.1812097728252411,
        -0.019254742190241814,
        0.05429158732295036,
        -0.06940864026546478,
        -0.06331557035446167,
        -0.14933520555496216,
        0.06832487136125565,
        -0.05548514053225517,
        0.024087563157081604,
        -0.03119724988937378,
        -0.006494227796792984,
        -0.08591683208942413,
        -0.032970279455184937,
        0.0007114653708413243,
        -0.13624873757362366,
        0.006551658734679222,
        0.02046241983771324,
        0.18487074971199036,
        0.12353929877281189,
        0.026524677872657776,
        -0.2246001660823822,
        -0.027316804975271225,
        0.0012167692184448242,
        0.09543253481388092,
        0.048990294337272644,
        0.17526504397392273,
        -0.1696365624666214,
        -0.22289617359638214,
        0.09103251993656158,
        0.123761385679245,
        0.010694428347051144,
        -0.012700013816356659,
        -0.01525980606675148,
        -0.00701845483854413
      ],
      "k_rotated": [
        -0.030575860291719437,
        -0.05885608121752739,
        0.00819368939846754,
        0.04812384396791458,
        -0.1436595320701599,
        -0.06719531118869781,
        -0.02821424975991249,
        -0.02125752530992031,
        -0.013791119679808617,
        0.019159464165568352,
        0.006514961365610361,
        0.06808113306760788,
        -0.04583662748336792,
        -0.028734462335705757,
        -0.025631370022892952,
        -0.1333027482032776,
        -0.03403136134147644,
        -0.08184456825256348,
        0.0520162396132946,
        0.1690615564584732,
        0.0877087265253067,
        0.01906413771212101,
        -0.12265931069850922,
        0.22956612706184387,
        0.004094849340617657,
        -0.0009122751653194427,
        -0.004838825669139624,
        0.06992749869823456,
        0.12411468476057053,
        0.15932434797286987,
        -0.030490484088659286,
        0.18850098550319672,
        -0.03294285386800766,
        -0.029715558513998985,
        0.00778867257758975,
        0.03242527320981026,
        -0.006436984520405531,
        -0.00931037962436676,
        -0.0197584331035614,
        0.10320698469877243,
        0.01726638339459896,
        0.05068231746554375,
        0.21935033798217773,
        0.008243018761277199,
        0.018764808773994446,
        0.020409902557730675,
        0.08401050418615341,
        0.09999240189790726,
        0.03554777428507805,
        0.12926173210144043,
        -0.03991684317588806,
        0.01760992407798767,
        -0.18252433836460114,
        0.12344126403331757,
        0.0802849605679512,
        -0.13212443888187408,
        -0.09311415255069733,
        -0.02374950423836708,
        -0.01628822088241577,
        0.15761935710906982,
        -0.03374715894460678,
        -0.19863666594028473,
        0.10537836700677872,
        -0.00735060079023242
      ]
    },
    {
      "op": "mlp_forward",
      "tag": "2d_seq",
      "input_shape": [
        4,
        32
      ],
      "hidden_size": 32,
      "intermediate_size": 64,
      "gate_proj_weight": [
        -0.017927436158061028,
        0.03316808491945267,
        -0.013695080764591694,
        -0.019951822236180305,
        0.026007920503616333,
        -0.005879664793610573,
        -0.015055772848427296,
        0.022199690341949463,
        -0.022329628467559814,
        -0.017690330743789673,
        0.001601725583896041,
        0.01387021504342556,
        -0.00722516980022192,
        -0.02777837961912155,
        0.008976349607110023,
        -0.01100872177630663,
        0.023882409557700157,
        0.03025098703801632,
        0.0021083145402371883,
        -0.0237300843000412,
        0.007307393942028284,
        0.0195445716381073,
        0.022232556715607643,
        -0.046226661652326584,
        0.0012331390753388405,
        -0.03157651424407959,
        0.008168965578079224,
        0.039476968348026276,
        -0.01624707691371441,
        0.014168353751301765,
        0.013548318296670914,
        -0.02200501784682274,
        -0.001131076249293983,
        -0.017468327656388283,
        -0.012428042478859425,
        0.01523799542337656,
        -0.022014478221535683,
        0.013032151386141777,
        -0.014104647561907768,
        0.008519044145941734,
        0.0120664332062006,
        -0.01804620400071144,
        -0.011352629400789738,
        -0.04737411066889763,
        0.0038896887563169003,
        -0.024033570662140846,
        0.0035546543076634407,
        -0.03873788192868233,
        -0.01773126609623432,
        0.011243697255849838,
        0.0008598626009188592,
        0.006476026494055986,
        -0.0122278006747365,
        0.0018398987594991922,
        -0.019683649763464928,
        -0.05835355445742607,
        0.007289818953722715,
        -0.006232753861695528,
        0.012993822805583477,
        0.012384651228785515,
        2.790165126498323e-05,
        0.006663227453827858,
        -0.0020088031888008118,
        -0.01683088205754757,
        -0.02506699413061142,
        -0.007905250415205956,
        0.0029871391598135233,
        0.017755800858139992,
        -0.03138502314686775,
        -0.0013677669921889901,
        -0.01443461887538433,
        -0.003976600710302591,
        -0.04888427257537842,
        0.025736046954989433,
        -0.01469730120152235,
        0.01350027322769165,
        -0.00692718056961894,
        0.01006932370364666,
        0.018682967871427536,
        0.009825384244322777,
        -0.010408426634967327,
        -0.013335390016436577,
        0.0037196665070950985,
        0.012343352660536766,
        -0.01155504398047924,
        0.019588345661759377,
        -0.02212994359433651,
        0.01094765868037939,
        -0.0008655566489323974,
        -0.028011739253997803,
        -0.019179491326212883,
        -0.035110410302877426,
        0.011747706681489944,
        0.0024241178762167692,
        0.01658606342971325,
        0.007727250922471285,
        0.011312817223370075,
        0.024504883214831352,
        0.01504434272646904,
        0.00800210703164339,
        -0.0002778724010568112,
        -0.021164974197745323,
        0.005187998991459608,
        0.037575140595436096,
        0.00425282958894968,
        0.010098608210682869,
        0.019338440150022507,
        0.019753247499465942,
        0.011339656077325344,
        -0.01916586235165596,
        0.04556499049067497,
        -0.012497157789766788,
        -0.0030342750251293182,
        -0.046322114765644073,
        0.024783261120319366,
        0.0004108677676413208,
        0.03404218703508377,
        -0.0045983330346643925,
        0.06962886452674866,
        -0.007961560972034931,
        -0.0004283614980522543,
        0.007606207393109798,
        -0.0072404323145747185,
        -0.029135476797819138,
        0.013579986989498138,
        0.026580607518553734,
        0.029566604644060135,
        0.0023797692265361547,
        -0.027384834364056587,
        0.017321228981018066,
        -0.03340679779648781,
        -0.021898014470934868,
        0.01134546846151352,
        -0.0018906381446868181,
        0.01581304334104061,
        -0.017586003988981247,
        -0.0006578330649062991,
        -0.040777210146188736,
        0.0049096629954874516,
        -0.025098290294408798,
        -0.0036359624937176704,
        0.040555328130722046,
        0.0038614284712821245,
        -0.0018980266759172082,
        0.005802938248962164,
        0.013268798589706421,
        0.02843960002064705,
        0.015818821266293526,
        -0.02068644016981125,
        0.001763055333867669,
        0.0018737997161224484,
        0.00010936918260995299,
        -0.021391479298472404,
        -0.03250117227435112,
        -0.03081655129790306,
        0.03264443203806877,
        0.012867731973528862,
        0.008053213357925415,
        -0.008778712712228298,
        0.04070218652486801,
        0.01785152591764927,
        0.007860626094043255,
        -0.021976932883262634,
        -0.022735964506864548,
        0.015529485419392586,
        -0.002779464703053236,
        0.03420998901128769,
        0.003578933421522379,
        -0.009740561246871948,
        -0.0017366550164297223,
        0.011204198002815247,
        -0.007150175981223583,
        -0.041088804602622986,
        -0.029309382662177086,
        -0.0049410006031394005,
        0.012247512117028236,
        -0.019889825955033302,
        -0.013626975938677788,
        0.006807750090956688,
        -0.006471043452620506,
        0.018862245604395866,
        -0.009666705504059792,
        -0.02446523681282997,
        -0.007554495707154274,
        -0.0253581665456295,
        -0.03208160772919655,
        -0.00020195794058963656,
        0.0020843492820858955,
        -0.03796180337667465,
        -0.03146320581436157,
        -0.03801053762435913,
        0.02174719236791134,
        -0.02137206681072712,
        0.02022332139313221,
        0.0035447641275823116,
        -0.01672189310193062,
        -0.027872905135154724,
        -0.04555172473192215,
        -0.006117398384958506,
        0.019711829721927643,
        -0.0017596670659258962,
        -0.02469237521290779,
        -0.04801042377948761,
        -0.010345760732889175,
        0.027193661779165268,
        0.005814210046082735,
        -0.0019144013058394194,
        -0.01632632315158844,
        -0.03917161747813225,
        -0.028988851234316826,
        -0.02311139926314354,
        0.042475298047065735,
        0.009296728298068047,
        -0.008876346051692963,
        0.03491639718413353,
        -0.027166128158569336,
        0.03384432569146156,
        -0.0022388228680938482,
        -0.025528613477945328,
        -0.003562407335266471,
        -0.007785742171108723,
        0.014649533666670322,
        -8.259189780801535e-05,
        0.0043909004889428616,
        -0.002741031814366579,
        0.003013518638908863,
        0.014834319241344929,
        -0.010650184005498886,
        -0.0015724579570814967,
        0.023994745686650276,
        0.007830878719687462,
        -0.019883615896105766,
        -0.02623479627072811,
        -0.008769222535192966,
        -0.011265097185969353,
        0.02518410235643387,
        0.0283266082406044,
        -0.014830580912530422,
        0.014182229526340961,
        -0.0061203716322779655,
        0.02137620374560356,
        0.011039943434298038,
        0.010161025449633598,
        -0.01607748307287693,
        -0.029080506414175034,
        -0.028821565210819244,
        0.048747725784778595,
        -0.028635265305638313,
        -0.05479408800601959,
        0.048346322029829025,
        0.024531587958335876,
        0.0400715097784996,
        0.0071893795393407345,
        -0.013252412900328636,
        0.0259527787566185,
        0.0014535216614603996,
        0.02356751449406147,
        -0.011834818869829178,
        -0.0020962595008313656,
        -0.00264681875705719,
        0.034988295286893845,
        0.0043075839057564735,
        0.013622255064547062,
        -0.019674502313137054,
        0.003142380155622959,
        0.006795848254114389,
        0.0008520662086084485,
        -0.028799032792448997,
        0.0026652247179299593,
        0.010081890970468521,
        -0.005928291007876396,
        0.0438058115541935,
        -0.022975560277700424,
        -0.003226352157071233,
        -0.014189938083291054,
        -0.03335956856608391,
        -0.003557560732588172,
        0.026535017415881157,
        -0.023689687252044678,
        -0.004563923459500074,
        0.022568441927433014,
        -0.0471511110663414,
        0.008307804353535175,
        -0.019064707681536674,
        0.04491832107305527,
        0.010094297118484974,
        -0.014773447997868061,
        0.021906491369009018,
        0.05640822649002075,
        0.003867823164910078,
        -0.006774451117962599,
        -0.00525361904874444,
        -0.027739861980080605,
        0.008044798858463764,
        -0.01680511236190796,
        0.015584158711135387,
        0.025882503017783165,
        0.0016933552687987685,
        0.02508425898849964,
        0.006563554983586073,
        -0.00538333086296916,
        0.004357153084129095,
        -0.06878412514925003,
        0.038871221244335175,
        -0.012913104146718979,
        0.008807509206235409,
        -0.0076317391358315945,
        0.02103522978723049,
        0.007149841636419296,
        -0.0020063717383891344,
        -0.015276643447577953,
        -0.00051604222971946,
        0.010307464748620987,
        -0.003321962198242545,
        0.022609081119298935,
        0.030935045331716537,
        -0.002405924256891012,
        -0.006592604797333479,
        0.01936997100710869,
        -0.006096696015447378,
        -0.007099043112248182,
        0.006905969697982073,
        0.021898014470934868,
        -0.009222524240612984,
        0.0030827196314930916,
        -0.035710692405700684,
        -0.01884016953408718,
        0.03440272808074951,
        0.012296936474740505,
        -0.004011381417512894,
        -0.002035734709352255,
        -0.04320754483342171,
        0.012247439473867416,
        -0.014356356114149094,
        -0.03256139159202576,
        -0.027622248977422714,
        -0.026760820299386978,
        -0.01709071919322014,
        0.01058944221585989,
        -0.018399078398942947,
        -0.019100524485111237,
        -0.0106818163767457,
        -0.002167958067730069,
        0.0014449302107095718,
        0.017704930156469345,
        -0.004388784058392048,
        -0.026627494022250175,
        -0.005315688904374838,
        -0.025212237611413002,
        0.017040861770510674,
        0.0021499537397176027,
        -0.031558066606521606,
        0.0020569951739162207,
        0.012201698496937752,
        0.028989147394895554,
        -0.03003917820751667,
        0.017385656014084816,
        -0.026281412690877914,
        -0.020773131400346756,
        -0.004299747291952372,
        0.018309716135263443,
        -0.01790812239050865,
        -0.002223487012088299,
        -0.015559596940875053,
        -0.002654079347848892,
        0.016957592219114304,
        0.011209637857973576,
        -0.021035050973296165,
        -0.0031630792655050755,
        -0.03276504576206207,
        0.020287061110138893,
        -0.02260408364236355,
        -0.009532847441732883,
        0.02079860121011734,
        0.01602417603135109,
        -0.02462916634976864,
        0.017684493213891983,
        -0.013581648468971252,
        0.01228298433125019,
        0.019662536680698395,
        -0.02414756268262863,
        -0.024433907121419907,
        -0.0325482152402401,
        -0.020412912592291832,
        -0.008946594782173634,
        -0.015139352530241013,
        -0.026628592982888222,
        0.008926252834498882,
        0.006537312176078558,
        0.02177652344107628,
        -0.0018925813492387533,
        -0.011001750826835632,
        0.010289181023836136,
        -0.001905818353407085,
        -0.01658458821475506,
        -0.0043444824405014515,
        0.028523609042167664,
        -0.01940295100212097,
        -0.012488294392824173,
        0.030154846608638763,
        -0.03137907013297081,
        0.021421615034341812,
        0.005104499869048595,
        0.011378319934010506,
        -0.025711867958307266,
        -0.01211408618837595,
        0.01028520055115223,
        -0.00047903621452860534,
        -0.011609246022999287,
        -0.00892614759504795,
        -0.011425269767642021,
        0.013014022260904312,
        0.002418765565380454,
        -0.003393768798559904,
        -0.015096579678356647,
        0.012514314614236355,
        -0.019600339233875275,
        0.026409775018692017,
        0.013722305186092854,
        -0.01882346160709858,
        -0.010877085849642754,
        0.0058065252378582954,
        0.017439134418964386,
        0.001272770925424993,
        -0.009859001263976097,
        -0.019913535565137863,
        -0.004386655054986477,
        0.02965403161942959,
        0.013269010931253433,
        -0.009430971927940845,
        0.007216586731374264,
        0.005702592432498932,
        -0.009709028527140617,
        0.03908146172761917,
        -0.020446719601750374,
        -0.0558716282248497,
        -0.012541481293737888,
        -0.007593078073114157,
        -0.002695083152502775,
        -0.00026512693148106337,
        -0.03718427196145058,
        -0.007909870706498623,
        -0.0005927530582994223,
        0.030848585069179535,
        0.01874060370028019,
        -0.01202273927628994,
        -0.008551460690796375,
        -0.009261553175747395,
        0.01735265739262104,
        0.012597466818988323,
        0.0038958226796239614,
        0.0007898766198195517,
        0.01974109187722206,
        0.007717887405306101,
        0.007002156227827072,
        -0.02636393904685974,
        -0.023968562483787537,
        -0.021374840289354324,
        0.05716344341635704,
        -0.03139306604862213,
        0.007943599484860897,
        0.01772538386285305,
        -0.007611232344061136,
        0.009578511118888855,
        0.033619094640016556,
        0.04006998613476753,
        0.006183843594044447,
        0.019568679854273796,
        0.038991935551166534,
        -0.03043726459145546,
        -0.013646219857037067,
        0.0026714003179222345,
        -0.004745013080537319,
        0.04855957254767418,
        -0.009604168124496937,
        0.022869974374771118,
        0.054133448749780655,
        -0.0008244398050010204,
        0.0024850647896528244,
        -0.010884382762014866,
        -0.01686011254787445,
        0.015095515176653862,
        0.011271391995251179,
        -0.006080263759940863,
        -0.004770631901919842,
        -0.01249667163938284,
        0.009059821255505085,
        0.014107952825725079,
        -0.019301442429423332,
        0.020506154745817184,
        0.0010151948081329465,
        0.014890587888658047,
        -0.0018329559825360775,
        -0.0008395107579417527,
        0.01052062027156353,
        -0.0019443891942501068,
        -0.023759683594107628,
        0.0054825711995363235,
        0.009482961148023605,
        0.014886956661939621,
        3.615273453760892e-05,
        -0.003556476440280676,
        0.012807037681341171,
        0.03377070277929306,
        0.005003555212169886,
        0.01076024305075407,
        0.008479933254420757,
        -0.019939249381422997,
        0.03325473889708519,
        -0.01758713275194168,
        0.006974862888455391,
        -0.004422720987349749,
        0.01161507610231638,
        -0.005311247427016497,
        -0.04518400505185127,
        -0.01195045281201601,
        -0.0057682679034769535,
        -0.009095734916627407,
        0.00391738535836339,
        -0.024941103532910347,
        -0.005163334310054779,
        -0.015800245106220245,
        -0.005471088923513889,
        0.0025971520226448774,
        -0.007745106238871813,
        0.007947977632284164,
        0.010362492874264717,
        -0.020700978115200996,
        -0.03186933696269989,
        0.00983060896396637,
        -0.007016388233751059,
        0.03753220662474632,
        0.029077576473355293,
        -0.014717191457748413,
        0.033033180981874466,
        0.0152520053088665,
        0.022921741008758545,
        -0.018380645662546158,
        0.01346765086054802,
        -0.004571704659610987,
        0.02473525144159794,
        -0.0021353743504732847,
        -0.001778757432475686,
        0.03882298991084099,
        -0.0016635386273264885,
        0.04112732782959938,
        0.04317832365632057,
        -0.04294103384017944,
        0.016513368114829063,
        -0.0004084264801349491,
        -0.01157313771545887,
        -0.002261584158986807,
        -0.007996908389031887,
        -0.021528389304876328,
        0.007560831028968096,
        -0.012222571298480034,
        0.007034815847873688,
        -0.016278311610221863,
        0.031643111258745193,
        -0.015101765282452106,
        0.016695860773324966,
        -0.019763195887207985,
        -0.0056522139348089695,
        -0.01480058953166008,
        -0.014614634215831757,
        0.01916375569999218,
        -0.015728050842881203,
        -0.044435590505599976,
        -0.01674601621925831,
        0.0249447301030159,
        0.022097615525126457,
        0.001710403710603714,
        0.004545092117041349,
        -0.032019197940826416,
        0.03807630389928818,
        0.004508186597377062,
        -0.010219358839094639,
        0.007875261828303337,
        0.0034050680696964264,
        0.0015629740664735436,
        -0.013232682831585407,
        0.02322523482143879,
        0.0017083463026210666,
        -0.030818913131952286,
        0.0047623529098927975,
        0.005748163443058729,
        0.026176204904913902,
        -0.014096468687057495,
        -0.03492178022861481,
        0.0037452178075909615,
        -0.005378757603466511,
        0.031915269792079926,
        -0.0033058172557502985,
        0.016886426135897636,
        -0.03260478377342224,
        -0.012724886648356915,
        0.010033639147877693,
        0.018650466576218605,
        -0.02688612788915634,
        0.011477485299110413,
        -0.014335399493575096,
        0.028216447681188583,
        0.028091909363865852,
        -0.010507340542972088,
        0.01847727969288826,
        -0.03763144463300705,
        -0.013612731359899044,
        -0.012725151143968105,
        0.004838190041482449,
        -0.03870410844683647,
        -0.004646540619432926,
        -0.005984802730381489,
        0.0191387590020895,
        -0.01317264512181282,
        -0.0020248335786163807,
        -0.014498084783554077,
        -0.009926996193826199,
        -0.00198328192345798,
        -0.008021118119359016,
        -0.03363474830985069,
        -0.03649751469492912,
        0.0018607060192152858,
        0.04991123080253601,
        -0.03301636502146721,
        -0.01951749436557293,
        -0.011432700790464878,
        0.006834858097136021,
        -0.01918034814298153,
        -0.015844225883483887,
        -0.03652701899409294,
        0.042689889669418335,
        -0.004511239938437939,
        -0.020818915218114853,
        0.008760329335927963,
        0.029180852696299553,
        0.0194872934371233,
        -0.013781330548226833,
        -0.02838623896241188,
        0.017553364858031273,
        -0.03358546271920204,
        0.04731503874063492,
        0.007841885089874268,
        -0.03140542656183243,
        0.003794754622504115,
        0.007026487495750189,
        -0.011548664420843124,
        0.04148494452238083,
        -0.01110732089728117,
        -0.03722662478685379,
        -0.013150549493730068,
        0.020955657586455345,
        -0.020771196112036705,
        0.02428434230387211,
        0.03053446300327778,
        0.024947596713900566,
        -0.01752293109893799,
        -0.0019488378893584013,
        -0.02812652289867401,
        -0.013965087942779064,
        -0.0223458930850029,
        0.00043159726192243397,
        -0.005544633138924837,
        -0.008252376690506935,
        0.0026906528510153294,
        0.006376729346811771,
        0.03046605922281742,
        0.04591653123497963,
        0.019271789118647575,
        0.016252920031547546,
        -0.017503244802355766,
        -0.01863611862063408,
        0.014854837208986282,
        -0.0023561916314065456,
        0.008966618217527866,
        0.01966538466513157,
        -0.012397661805152893,
        0.0123582873493433,
        0.009067099541425705,
        0.014922327362000942,
        -0.01761353388428688,
        0.010936480946838856,
        0.027725372463464737,
        0.0023826402612030506,
        0.021654490381479263,
        -0.007540581747889519,
        0.015669049695134163,
        0.015215854160487652,
        -0.03108850121498108,
        -0.013797695748507977,
        -0.044542644172906876,
        -0.025168556720018387,
        -0.031985510140657425,
        -0.012253978289663792,
        -0.019302835687994957,
        -0.009711261838674545,
        -0.02158414013683796,
        -0.025169212371110916,
        -0.01811767742037773,
        0.007369583006948233,
        -0.021502630785107613,
        -0.00875440426170826,
        -0.006437171716243029,
        -0.004244668409228325,
        0.020707301795482635,
        0.005818894598633051,
        -0.0029513798654079437,
        0.013834070414304733,
        0.028930384665727615,
        0.015564396046102047,
        -0.01725248619914055,
        0.003908250946551561,
        0.021495968103408813,
        0.01903502829372883,
        -0.0012277975911274552,
        -0.031084954738616943,
        -0.004927759524434805,
        -0.025153476744890213,
        0.009529096074402332,
        0.012910228222608566,
        -0.032178279012441635,
        0.014208845794200897,
        0.027170373126864433,
        -0.03654272109270096,
        -0.008617175742983818,
        0.024111667647957802,
        -0.011697264388203621,
        -0.02185606025159359,
        0.0008254808490164578,
        0.020303083583712578,
        -0.00492091104388237,
        -0.014915881678462029,
        -0.01423803623765707,
        0.0191765446215868,
        -0.012682580389082432,
        -0.0274408757686615,
        -0.004828892648220062,
        -0.006960217375308275,
        0.017652029171586037,
        0.016260609030723572,
        -0.02830883115530014,
        0.003960533998906612,
        -0.023410046473145485,
        -0.010499907657504082,
        0.022647496312856674,
        0.02244482934474945,
        -0.011997451074421406,
        -0.0030517601408064365,
        -0.006941004190593958,
        -0.013611210510134697,
        -0.01401206199079752,
        0.003571772249415517,
        0.032646771520376205,
        0.008016043342649937,
        0.005164234433323145,
        -0.027713865041732788,
        -0.008843554183840752,
        -0.01763985864818096,
        0.004011829849332571,
        -0.002300888765603304,
        -0.05293694883584976,
        0.004050998017191887,
        -0.02129444293677807,
        -0.012196052819490433,
        0.02166304551064968,
        -0.03325389325618744,
        -0.018929090350866318,
        -0.005512025207281113,
        -0.02057897113263607,
        -0.04875510558485985,
        -0.01207651849836111,
        0.007848575711250305,
        0.001503719831816852,
        -0.028584446758031845,
        -0.006010764744132757,
        0.024878794327378273,
        0.012658079154789448,
        0.020854942500591278,
        0.012474955059587955,
        -0.010322630405426025,
        0.04398361220955849,
        0.034715261310338974,
        -0.01679295115172863,
        -0.030886923894286156,
        0.039624471217393875,
        -0.013540426269173622,
        -0.03284921869635582,
        0.00563932815566659,
        -0.011415030807256699,
        -0.028003115206956863,
        -0.0048811729066073895,
        0.013625006191432476,
        -0.047027330845594406,
        0.033764686435461044,
        -0.00019226166477892548,
        -0.018233850598335266,
        -0.012778806500136852,
        0.009875473566353321,
        -0.0037564998492598534,
        -0.006575621198862791,
        -0.02806904911994934,
        -0.011135179549455643,
        0.01941140554845333,
        -0.006552535109221935,
        -0.0016968394629657269,
        -0.013741514645516872,
        -0.0013037339085713029,
        0.007810259237885475,
        0.01870855689048767,
        -0.022781968116760254,
        0.02661767415702343,
        0.006951838731765747,
        0.014125313609838486,
        -0.04642987623810768,
        0.0004600268439389765,
        -0.0017686651553958654,
        0.01463524904102087,
        0.004643291234970093,
        -0.015536978840827942,
        -0.038887713104486465,
        -0.00488318270072341,
        -0.013700327835977077,
        0.01968233473598957,
        -0.02119714394211769,
        0.014065968804061413,
        -0.02674555778503418,
        -0.0160535741597414,
        0.0024138325825333595,
        0.019882287830114365,
        0.005468286573886871,
        0.00768113462254405,
        0.003594171954318881,
        0.035556767135858536,
        -0.020432373508810997,
        -0.016959883272647858,
        -0.009169886820018291,
        -0.008729904890060425,
        0.027369841933250427,
        -0.0012757761869579554,
        -0.04179755225777626,
        -0.009797647595405579,
        -0.0025948777329176664,
        -0.032923560589551926,
        -0.000980538665316999,
        0.0008760702912695706,
        -0.0028040457982569933,
        0.0023619418498128653,
        0.02223905920982361,
        0.04853186383843422,
        0.014440878294408321,
        0.012905491515994072,
        0.02616189233958721,
        0.018822599202394485,
        -0.05798764154314995,
        0.04000834375619888,
        0.018555205315351486,
        -0.021252848207950592,
        0.007596161682158709,
        0.012895558960735798,
        -0.031109362840652466,
        -0.002935081720352173,
        0.014192943461239338,
        -0.014452675357460976,
        0.010831562802195549,
        -0.015704108402132988,
        -0.012846547178924084,
        -0.004892347846180201,
        0.004656262695789337,
        0.006546797696501017,
        -0.06311451643705368,
        -0.012535981833934784,
        0.009383347816765308,
        -0.02911156788468361,
        -0.018187539651989937,
        -0.01827002875506878,
        -0.016213085502386093,
        0.017655089497566223,
        0.019637800753116608,
        -0.003820376703515649,
        -0.011121264658868313,
        -0.0065110526047647,
        0.028796957805752754,
        0.01294857356697321,
        0.024187935516238213,
        0.03988020122051239,
        0.0211322158575058,
        -0.01183764822781086,
        0.03412012383341789,
        0.040909554809331894,
        -0.0016623006667941809,
        -0.016858603805303574,
        0.012819495052099228,
        -0.008029058575630188,
        0.0183610450476408,
        0.018106428906321526,
        0.0005901445401832461,
        0.012095022946596146,
        -0.01998031884431839,
        -0.0029867026023566723,
        -0.021213261410593987,
        -0.027437696233391762,
        0.030424045398831367,
        -0.007657500449568033,
        -0.00060060661053285,
        -0.0005119879497215152,
        -0.004486425314098597,
        -0.008761458098888397,
        0.007487455848604441,
        -0.057199716567993164,
        -0.0011782579822465777,
        -0.0005151457153260708,
        0.02747970260679722,
        0.015141621232032776,
        -0.012906912714242935,
        0.006230134051293135,
        -0.01319088414311409,
        0.03580733388662338,
        -0.0018937889253720641,
        -0.012024657800793648,
        -0.004668221343308687,
        0.014990927651524544,
        -0.008257529698312283,
        0.011441720649600029,
        -0.006114813033491373,
        -0.02616182342171669,
        0.037713974714279175,
        -0.02747495286166668,
        -0.011638750322163105,
        -0.0217556431889534,
        0.027538446709513664,
        0.0060026757419109344,
        -0.01427476853132248,
        -0.001705898903310299,
        0.03231051191687584,
        -0.013583604246377945,
        0.041311267763376236,
        -0.03293413668870926,
        0.0259107556194067,
        -0.00965927354991436,
        0.026745518669486046,
        0.005387553945183754,
        -0.01200266182422638,
        0.012334683910012245,
        0.013348090462386608,
        0.008830680511891842,
        0.0025626271963119507,
        -0.020358778536319733,
        -0.022772133350372314,
        0.005864935927093029,
        -0.0013205441646277905,
        -0.02695428766310215,
        -0.014944124035537243,
        0.019267411902546883,
        0.01796719804406166,
        0.004178250208497047,
        0.01513706799596548,
        0.017404010519385338,
        -0.0019546994008123875,
        -0.03006141074001789,
        0.027857495471835136,
        -0.020603427663445473,
        0.023861698806285858,
        0.02690831385552883,
        -0.011150854639708996,
        0.020668387413024902,
        0.015818776562809944,
        -0.014321788214147091,
        0.033331044018268585,
        -0.027061253786087036,
        0.008102922700345516,
        -0.016737723723053932,
        0.004571246448904276,
        0.021696919575333595,
        -0.00964523758739233,
        -0.01816951483488083,
        -0.0018149130046367645,
        -0.014048349112272263,
        0.02968808077275753,
        0.0008655918063595891,
        0.0051852744072675705,
        -0.0014402787201106548,
        -0.00708082364872098,
        0.011272720992565155,
        0.012503385543823242,
        0.0012977485312148929,
        0.02956678345799446,
        0.031541191041469574,
        0.020067516714334488,
        0.015381711535155773,
        0.019992930814623833,
        -0.021997258067131042,
        0.003386505413800478,
        0.014640393666923046,
        -0.006290927994996309,
        0.01149805635213852,
        -0.00424921652302146,
        -0.01759989559650421,
        0.012928095646202564,
        0.016229193657636642,
        -0.0030738194473087788,
        -0.0017164605669677258,
        0.002400323748588562,
        -0.01641121879220009,
        0.024028081446886063,
        0.005192792974412441,
        -0.0075263939797878265,
        -0.025975853204727173,
        0.015757029876112938,
        -0.012415717355906963,
        -0.02427033521234989,
        0.0025270062033087015,
        0.0005479006213136017,
        -0.009819027967751026,
        0.016603702679276466,
        0.018250780180096626,
        -0.009087996557354927,
        0.005301761906594038,
        0.02273925021290779,
        -0.026983529329299927,
        0.02501768060028553,
        0.007751965895295143,
        0.024157384410500526,
        0.011902903206646442,
        -0.007802068255841732,
        0.038073018193244934,
        -0.0398721769452095,
        0.02803998813033104,
        0.001521300757303834,
        0.02554507739841938,
        -0.021629873663187027,
        -0.003863921156153083,
        0.00987184327095747,
        0.015184336341917515,
        0.0005601331358775496,
        -0.017224116250872612,
        0.03333244100213051,
        -0.006853289902210236,
        0.0010239500552415848,
        -0.02910480462014675,
        0.0014767489628866315,
        0.007037284784018993,
        -0.0035908683203160763,
        0.0021131252869963646,
        0.04458636790513992,
        -0.008667025715112686,
        0.0007620127871632576,
        -0.011974449269473553,
        -0.002349789021536708,
        -0.03244535252451897,
        0.02121586725115776,
        0.010473772883415222,
        0.013301990926265717,
        0.013368477113544941,
        -0.023461515083909035,
        -0.018228739500045776,
        0.033120714128017426,
        0.010063393041491508,
        0.011130166240036488,
        0.028016652911901474,
        0.007892480120062828,
        0.00875185988843441,
        0.017127716913819313,
        -0.04415016993880272,
        -0.013520349748432636,
        -0.006710907444357872,
        0.005159779451787472,
        -0.000550432363525033,
        -0.015886347740888596,
        0.017105361446738243,
        -6.252484308788553e-05,
        0.027887558564543724,
        -0.013067194260656834,
        0.012804273515939713,
        -0.007025083061307669,
        0.00416408060118556,
        0.009386819787323475,
        -0.02017788589000702,
        -0.02959781140089035,
        -0.00990646705031395,
        -0.008715146221220493,
        0.004104971885681152,
        0.031574882566928864,
        -0.015117233619093895,
        0.030836448073387146,
        -0.0009683850221335888,
        0.0009076422429643571,
        0.007624897174537182,
        0.023386429995298386,
        0.031563688069581985,
        0.023544281721115112,
        -0.024754723533988,
        -0.007589202374219894,
        -0.02130623534321785,
        0.0086125573143363,
        0.002299732528626919,
        -0.01732037030160427,
        -0.025764016434550285,
        -0.0034941222984343767,
        -0.027973970398306847,
        0.027831675484776497,
        -0.0157910268753767,
        -0.0033381241373717785,
        -0.005041167605668306,
        -0.003023832105100155,
        0.0047440300695598125,
        0.02288445644080639,
        -0.003232310526072979,
        -0.003841238562017679,
        -0.009063169360160828,
        -0.007429559715092182,
        -0.007683292031288147,
        0.016704421490430832,
        -0.011045563034713268,
        -0.011818021535873413,
        -0.0013654226204380393,
        -0.0005888765444979072,
        -0.0006483817705884576,
        0.012982621788978577,
        -0.025460097938776016,
        0.011697296053171158,
        -0.0018355700885877013,
        -0.02150917984545231,
        -0.01060072798281908,
        -0.02019069716334343,
        -0.006746301427483559,
        -0.03966882452368736,
        0.0013092495501041412,
        0.003673096187412739,
        -0.024517787620425224,
        -0.025463826954364777,
        -0.0309003796428442,
        -0.023271525278687477,
        0.004961972590535879,
        0.01052185520529747,
        -0.0212287325412035,
        -0.0022500331979244947,
        -0.020117204636335373,
        0.0438978336751461,
        0.02092321775853634,
        0.006597112398594618,
        -0.012018830515444279,
        -0.006314100697636604,
        0.04875188693404198,
        0.02181082032620907,
        -0.013854666613042355,
        0.008044794201850891,
        0.008295439183712006,
        0.043572619557380676,
        -0.005153590813279152,
        -0.0040953936986625195,
        0.01222178339958191,
        -0.024092307314276695,
        -0.011940871365368366,
        0.004620456602424383,
        0.0037364650052040815,
        0.0038353793788701296,
        -0.015769939869642258,
        0.03997190296649933,
        -0.022502707317471504,
        -0.013929878361523151,
        0.0174765232950449,
        0.004785439930856228,
        0.024157755076885223,
        0.005534115247428417,
        0.053398746997117996,
        0.01066854689270258,
        0.0026358570903539658,
        0.0008649001247249544,
        -0.01951618306338787,
        -0.054300326853990555,
        -0.007159035187214613,
        0.010495755821466446,
        0.019125334918498993,
        0.009878084994852543,
        -0.04063381627202034,
        -0.03716009110212326,
        0.010270780883729458,
        -0.00833060871809721,
        0.0016449051909148693,
        -0.0025867100339382887,
        -0.009201020002365112,
        0.01478832308202982,
        -0.017393456771969795,
        0.006735729053616524,
        0.01239382941275835,
        -0.021180421113967896,
        -0.0183010995388031,
        -0.02899882011115551,
        0.009144170209765434,
        0.0294722318649292,
        -0.0260614063590765,
        -0.024048857390880585,
        -0.011787913739681244,
        -0.022209543734788895,
        -0.02031989023089409,
        0.019559765234589577,
        0.046635836362838745,
        0.009262715466320515,
        -0.009481538087129593,
        -0.00794038362801075,
        0.009470771066844463,
        0.0014821341028437018,
        -0.020503351464867592,
        -0.009950823150575161,
        -0.01711387000977993,
        0.005102158058434725,
        -0.0007355081615969539,
        0.0163875799626112,
        0.002359595615416765,
        0.005644544959068298,
        0.011882619932293892,
        0.007006034720689058,
        -0.006776885129511356,
        0.003257420379668474,
        -0.01797652617096901,
        0.01519608311355114,
        0.02226073481142521,
        -0.011223649606108665,
        -0.006284639239311218,
        -0.0033069490455091,
        0.0015902207233011723,
        -0.0180926825851202,
        0.003139511216431856,
        0.007565216161310673,
        0.004340919200330973,
        0.016687214374542236,
        -0.021119382232427597,
        0.012062442488968372,
        -0.019097808748483658,
        0.010657631792128086,
        -0.005343570373952389,
        0.01979958452284336,
        -0.002947324188426137,
        -0.0013627554289996624,
        -0.006957705598324537,
        0.012808836065232754,
        -0.0394660048186779,
        0.017048461362719536,
        0.015170471742749214,
        0.022771278396248817,
        -0.03850148245692253,
        0.03274562954902649,
        -0.028957437723875046,
        0.009876701980829239,
        0.027000922709703445,
        -0.0028323435690253973,
        -0.005545750260353088,
        0.006980035919696093,
        0.005392986815422773,
        -0.0002979542769026011,
        -0.0146609116345644,
        0.013746759854257107,
        -0.013915078714489937,
        0.031987469643354416,
        0.0047528245486319065,
        -0.017921408638358116,
        0.015885693952441216,
        -0.01747043803334236,
        0.042930684983730316,
        0.0005856388015672565,
        0.021940648555755615,
        -0.017105160281062126,
        0.012390129268169403,
        0.015656039118766785,
        0.019619058817625046,
        -0.0036525416653603315,
        0.021636392921209335,
        0.015382375568151474,
        -0.01808851771056652,
        0.004925987217575312,
        0.023594815284013748,
        -0.01006048172712326,
        -0.001963954186066985,
        0.030014559626579285,
        -0.014742827042937279,
        -0.01149053405970335,
        -0.02935168892145157,
        -0.014970353804528713,
        -0.011969558894634247,
        -0.0710243433713913,
        0.040853071957826614,
        0.026725517585873604,
        0.021002892404794693,
        0.0071792867965996265,
        -0.002210959792137146,
        0.01722557842731476,
        -0.020775115117430687,
        -0.009737774729728699,
        0.025736309587955475,
        -0.004829734098166227,
        0.009821859188377857,
        0.029776152223348618,
        -0.03319482505321503,
        -0.009460014291107655,
        -0.0006146717933006585,
        -0.0059624891728162766,
        -0.004058554768562317,
        -0.010345379821956158,
        0.008831403218209743,
        -0.044211044907569885,
        0.028729332610964775,
        0.019171662628650665,
        0.0025995776522904634,
        0.005682547111064196,
        0.0241299569606781,
        0.011765980161726475,
        -0.010947173461318016,
        0.023544976487755775,
        0.02774886228144169,
        -0.020449884235858917,
        0.015891678631305695,
        -0.03624655306339264,
        -0.0005951523198746145,
        -0.010407794266939163,
        -0.018878977745771408,
        0.016965484246611595,
        -0.032393693923950195,
        -0.02410285361111164,
        0.01775585114955902,
        -0.0028251379262655973,
        -0.028974007815122604,
        0.00534642580896616,
        0.008565261960029602,
        -0.05358141288161278,
        0.02193634957075119,
        0.012268892489373684,
        -0.017962096258997917,
        -0.02615026943385601,
        -0.026209959760308266,
        -0.02416536957025528,
        -0.03178185969591141,
        0.031021466478705406,
        0.01825876347720623,
        0.03003452531993389,
        -0.013494272716343403,
        -0.0013605070998892188,
        -0.0018375463550910354,
        -0.014301278628408909,
        0.037297606468200684,
        0.0017174037639051676,
        0.011488059535622597,
        -0.0030771009624004364,
        -0.017140747979283333,
        0.013166747987270355,
        -0.03132055327296257,
        -0.006096932105720043,
        -0.014729470945894718,
        0.025680094957351685,
        0.014803524129092693,
        0.0064829373732209206,
        -0.00268546212464571,
        0.016183920204639435,
        0.01069776900112629,
        -0.02103217877447605,
        0.006167993415147066,
        -0.0025305943563580513,
        -0.00497779157012701,
        -0.00476833526045084,
        -0.014962156303226948,
        -0.005827274639159441,
        -0.005132820922881365,
        -0.018813133239746094,
        0.02868334949016571,
        -0.00575684430077672,
        -0.01063963770866394,
        0.01506761647760868,
        0.0007209089817479253,
        0.0030908146873116493,
        0.0024926813784986734,
        0.016714757308363914,
        0.0003164970548823476,
        -0.007466292940080166,
        -0.03096631169319153,
        -0.009931066073477268,
        0.0039008664898574352,
        0.03818792849779129,
        -0.013145397417247295,
        -0.006172254681587219,
        0.0032333158887922764,
        0.007296977564692497,
        -0.021984128281474113,
        -0.0012870217906311154,
        -0.03972664102911949,
        0.0028306494932621717,
        0.02254333719611168,
        -0.0019908107351511717,
        -0.00518131023272872,
        0.04050019755959511,
        -0.021527374163269997,
        -0.014914918690919876,
        -0.031956493854522705,
        0.019452156499028206,
        0.004181483760476112,
        0.020207330584526062,
        -0.0016741749132052064,
        -0.025587307289242744,
        -0.018150242045521736,
        0.009265986271202564,
        0.01666087657213211,
        -0.0013988828286528587,
        -0.003988194745033979,
        -0.025119198486208916,
        -0.006641683634370565,
        0.004541556816548109,
        -0.015993937849998474,
        0.007835193537175655,
        -0.026017267256975174,
        0.0195781197398901,
        0.018384022638201714,
        -0.011190575547516346,
        -0.028365273028612137,
        -0.011384109035134315,
        0.0016781613230705261,
        0.002192772226408124,
        -0.05111226066946983,
        -0.012463497929275036,
        0.02751009911298752,
        0.008656521327793598,
        0.015014375559985638,
        -0.0056533366441726685,
        0.013388494960963726,
        0.004664580803364515,
        -0.047346848994493484,
        -0.004733022768050432,
        0.005839899182319641,
        0.011224760673940182,
        -0.003656012238934636,
        0.007771260570734739,
        0.033550795167684555,
        0.01215515099465847,
        0.04077763855457306,
        -0.00031673512421548367,
        0.007766218390315771,
        0.032365165650844574,
        0.01862759329378605,
        -0.027771472930908203,
        -0.03396207466721535,
        -0.006394907832145691,
        0.045582883059978485,
        0.03033602423965931,
        0.001784804742783308,
        -0.0001622987474547699,
        -0.0006890922668389976,
        -0.02825113944709301,
        -0.007739082910120487,
        -0.01748204044997692,
        0.02745443768799305,
        0.016071850433945656,
        -0.014472771435976028,
        0.010380147024989128,
        -0.0284391138702631,
        -0.023901311680674553,
        -0.005498177371919155,
        0.0018658743938431144,
        0.013769296929240227,
        0.0412796214222908,
        -0.025805184617638588,
        0.03527802601456642,
        0.03881605714559555,
        -0.01427281741052866,
        0.023172475397586823,
        0.015508309006690979,
        -0.014148914255201817,
        0.0068500149063766,
        -0.031228329986333847,
        -0.013139172457158566,
        0.006119215860962868,
        0.018707798793911934,
        0.012090781703591347,
        0.0031025316566228867,
        -0.0033047001343220472,
        0.008027723990380764,
        -0.030568400397896767,
        -0.019788792356848717,
        -0.009350413456559181,
        0.010797484777867794,
        0.016032030805945396,
        -0.012738904915750027,
        -0.039677076041698456,
        0.03483694791793823,
        -0.0008865883573889732,
        0.025029970332980156,
        0.0075790476985275745,
        -0.025115523487329483,
        0.015815336257219315,
        -0.003816779237240553,
        0.01081408467143774,
        0.00017742339696269482,
        0.0026510870084166527,
        0.0020703524351119995,
        -0.009292985312640667,
        0.04707682877779007,
        -0.01603316143155098,
        -0.01077212579548359,
        0.007898552343249321,
        -0.0018066882621496916,
        -0.009563596919178963,
        0.015403412282466888,
        -0.011427335441112518,
        0.0004947505658492446,
        0.004536770284175873,
        0.010432668961584568,
        0.037343718111515045,
        0.01494361087679863,
        0.02163715288043022,
        0.00040033392724581063,
        -0.020189059898257256,
        -0.020072098821401596,
        -0.02091483399271965,
        0.010163158178329468,
        -0.0019734238740056753,
        0.007697181310504675,
        -0.0026845403481274843,
        -0.020023109391331673,
        -0.02693452127277851,
        -0.009191025048494339,
        -0.01798422262072563,
        -0.010261282324790955,
        0.006354826968163252,
        0.0061563244089484215,
        -0.006092792842537165,
        -0.02927202358841896,
        -0.03194268047809601,
        0.01226754765957594,
        -0.003093245904892683,
        0.0023411766160279512,
        0.041529323905706406,
        -0.030591947957873344,
        -0.012027273885905743,
        -0.0011253260308876634,
        0.011999377980828285,
        0.015087435021996498,
        0.016619808971881866,
        0.03747040033340454,
        0.007096709217876196,
        -0.026395609602332115,
        -0.00473979115486145,
        -0.0007012561545707285,
        -0.006181512959301472,
        0.013256794773042202,
        -0.0035506056156009436,
        -0.0051746973767876625,
        0.0038540619425475597,
        0.002712976885959506,
        -0.0038387610111385584,
        0.003821779740974307,
        -0.025397805497050285,
        0.01137547567486763,
        0.017471497878432274,
        -0.0004341626772657037,
        0.04651011899113655,
        0.0022811004891991615,
        0.005125313997268677,
        0.004338069353252649,
        -0.012186706066131592,
        0.02764105424284935,
        -0.01792978122830391,
        -0.03958197310566902,
        -0.024936821311712265,
        0.01067015528678894,
        -6.907603165018372e-06,
        -0.003658838104456663,
        -0.032113321125507355,
        -0.0023195052053779364,
        -0.025984767824411392,
        0.014371203258633614,
        0.003693908452987671,
        -0.0015254341997206211,
        0.02727644331753254,
        0.015360603109002113,
        -0.013580911792814732,
        -0.004724527709186077,
        0.01005966030061245,
        0.005273523740470409,
        -0.0028502498753368855,
        0.022493211552500725,
        -0.04130223020911217,
        0.037942033261060715,
        -0.0018494951073080301,
        -0.003770161885768175,
        0.02206306718289852,
        -0.0017772751161828637,
        0.0008612422971054912,
        0.0032527183648198843,
        0.012383040972054005,
        -0.008615301921963692,
        -0.012318273074924946,
        0.004890365060418844,
        0.03163614496588707,
        -0.0419270284473896,
        -0.0028420507442206144,
        0.008047288283705711,
        -0.023038320243358612,
        0.0008270661346614361,
        0.014379643835127354,
        0.013995235785841942,
        0.004203405696898699,
        0.030748264864087105,
        -0.03006773628294468,
        0.017677152529358864,
        -0.0007990688900463283,
        -0.02167612686753273,
        7.888029358582571e-05,
        0.026248149573802948,
        -0.0019083369988948107,
        -0.001707979361526668,
        0.03391261026263237,
        -0.027034619823098183,
        0.026010405272245407,
        -0.022522151470184326,
        -0.008639880456030369,
        -0.0034597734920680523,
        -0.005703678820282221,
        -0.04162027686834335,
        -0.003334291744977236,
        0.002183388452976942,
        -0.003064521821215749,
        0.013964985497295856,
        0.008133642375469208,
        0.014419510029256344,
        0.01376760471612215,
        -0.0036683036014437675,
        -0.029070721939206123,
        0.0034510805271565914,
        0.024818331003189087,
        0.012677841819822788,
        -0.029772121459245682,
        -0.004497298505157232,
        0.0025197609793394804,
        0.014917762950062752,
        -0.010870637372136116,
        0.002985917031764984,
        -0.02559712901711464,
        0.005577899515628815,
        0.001800099154934287,
        -0.0004581444663926959,
        0.03135586529970169,
        -0.014061098918318748,
        0.0028450775425881147,
        -0.011083409190177917,
        0.02139761485159397,
        -0.002691212808713317,
        0.020242955535650253,
        -0.04712657257914543,
        -0.0514095164835453,
        -0.018149562180042267,
        0.014311183243989944,
        -0.008474187925457954,
        -0.011410562321543694,
        -0.003169736824929714,
        -0.0285933967679739,
        -0.009076922200620174,
        0.017315931618213654,
        -0.004893696866929531,
        -0.0018032430671155453,
        -0.0071380785666406155,
        -0.0067200493067502975,
        -0.00669817952439189,
        0.004976136144250631,
        -0.0077053545974195,
        -0.01597345992922783,
        -0.02505539543926716,
        0.018088245764374733,
        0.02437802031636238,
        -0.00331436051055789,
        -0.01693081296980381,
        -0.027770288288593292,
        -0.01310790702700615,
        0.005754122976213694,
        0.021132182329893112,
        0.03271901234984398,
        0.027295881882309914,
        -0.016326308250427246,
        -0.01867549680173397,
        0.012944148853421211,
        -0.00024831926566548645,
        -0.01338981557637453,
        -0.015108834952116013,
        -0.017396241426467896,
        0.040116164833307266,
        0.020520243793725967,
        -0.028899600729346275,
        -0.007589596789330244,
        -0.025991791859269142,
        -0.019894883036613464,
        -0.01869390904903412,
        -0.012398947030305862,
        0.013112800195813179,
        0.001599498325958848,
        0.019551502540707588,
        -0.026943467557430267,
        -0.0251246877014637,
        0.017237907275557518,
        -0.001235799863934517,
        -0.004689259920269251,
        -0.026071464642882347,
        -0.014995605684816837,
        0.012732728384435177,
        -0.022471684962511063,
        -0.012307312339544296,
        -0.007687120232731104,
        0.028586672618985176,
        -0.014587814919650555,
        -0.028192471712827682,
        -0.010955189354717731,
        -0.005667052697390318,
        0.0059847659431397915,
        -0.022102531045675278,
        0.016308166086673737,
        -0.0144864022731781,
        0.0334162674844265,
        0.018949346616864204,
        -0.013027516193687916,
        -0.005840559024363756,
        0.02163260616362095,
        -0.025566650554537773,
        -5.688413875759579e-05,
        -0.002597460290417075,
        -0.03486759588122368,
        0.018195921555161476,
        0.0018927077762782574,
        -0.035262297838926315,
        -0.010807821527123451,
        0.009596445597708225,
        0.010033642873167992,
        0.018731802701950073,
        -0.003761457744985819,
        0.0018836238887161016,
        0.004447823856025934,
        0.0033677094615995884,
        0.01657946966588497,
        -0.0032644926104694605,
        0.03197666257619858,
        0.015098334290087223,
        0.038243286311626434,
        0.022581791505217552,
        -0.0015920476289466023,
        0.024513551965355873,
        0.019840896129608154,
        0.016920318827033043,
        -0.0005173012032173574,
        -0.010924285277724266,
        -0.004547856282442808,
        -0.003870995482429862,
        -0.018933163955807686,
        -0.012620961293578148,
        -0.015303808264434338,
        0.006414671894162893,
        0.005499737337231636,
        0.0003999444888904691,
        -0.00871910061687231,
        -0.006612952798604965,
        0.0024741950910538435,
        0.02033134736120701,
        -0.0258018895983696,
        0.0014721410116180778,
        0.0022157407365739346,
        -0.01562642678618431,
        0.002597152255475521,
        -0.007366823963820934,
        -0.028515862300992012,
        0.006518544629216194,
        -0.00433444045484066,
        0.03920573741197586,
        -0.008805436082184315,
        0.007428696379065514,
        -0.04094820097088814,
        0.03091590106487274,
        -0.02031068503856659,
        0.0006049067596904933,
        0.016481200233101845,
        -0.029581734910607338,
        0.013564434833824635,
        0.0075167142786085606,
        0.0007217674283310771,
        0.0010763525497168303,
        0.003634738503023982,
        0.030304910615086555,
        0.01621522195637226,
        -0.023594388738274574,
        0.005293278489261866,
        0.016078481450676918,
        -0.010185238905251026,
        0.009416873566806316,
        0.00976095162332058,
        -0.01193966157734394,
        -0.02890324965119362,
        0.017282331362366676,
        -0.045826468616724014,
        0.018498802557587624,
        0.01036712247878313,
        0.03127444162964821,
        -0.0038284456823021173,
        0.004525253549218178,
        -0.00744461826980114,
        0.026518821716308594,
        0.006000460125505924,
        0.014977669343352318,
        -0.012578943744301796,
        -0.0037906980141997337,
        -0.025119679048657417,
        -0.00616425508633256,
        -0.03823211044073105,
        -0.03367539495229721,
        0.016693653538823128,
        -0.003638721304014325,
        0.004103685729205608,
        0.001910358085297048,
        -0.014564316719770432,
        0.006327706854790449,
        0.00823612418025732,
        0.005496332421898842,
        0.015797579661011696,
        0.013112703338265419,
        -0.023910824209451675,
        0.01617465727031231,
        -0.01675563119351864,
        -0.002057587495073676,
        -0.012349375523626804,
        0.025248512625694275,
        -0.00011812242155428976,
        0.004313204903155565,
        0.016360439360141754,
        -0.029141860082745552,
        0.03413210064172745,
        -0.013490987941622734,
        0.02664205990731716,
        0.020188622176647186,
        -0.014739892445504665,
        -0.00487160962074995,
        0.017076104879379272,
        -0.008956563659012318,
        -0.012371200136840343,
        0.011834189295768738,
        0.010157340206205845,
        -0.00890679657459259,
        -0.020207783207297325,
        -0.0012557661393657327,
        -0.0344533771276474,
        -0.0004333956749178469,
        -0.011001024395227432,
        0.008546828292310238,
        0.012212274596095085,
        0.0008573147933930159,
        -0.03805122897028923,
        0.0327271968126297,
        -0.01617486961185932,
        0.001958576962351799,
        -0.019614674150943756,
        0.010356560349464417,
        -0.02020254172384739,
        -0.005334882996976376,
        0.0033215966541320086,
        -0.006147072650492191,
        0.04083723574876785,
        0.0013146036071702838,
        -0.011784102767705917,
        0.015700949355959892,
        0.010064279660582542,
        -0.0021640167105942965,
        0.016004322096705437,
        0.030177712440490723,
        -0.015821857377886772,
        -0.009503495879471302,
        -0.003415158949792385,
        0.00012960071035195142,
        0.007212975062429905,
        0.008119195699691772,
        -0.013704038225114346,
        -0.0022627953439950943,
        0.01871812716126442,
        -0.04920588806271553,
        0.0016862666234374046,
        -0.03257618471980095,
        0.013471911661326885,
        0.006215099710971117,
        -0.004258792381733656,
        0.038152653723955154,
        -0.013477159664034843,
        0.0025098284240812063,
        0.008012152276933193,
        -0.011333922855556011,
        -0.0007431354024447501,
        -0.02136269211769104,
        -0.0017932812916114926,
        -0.0014768599066883326,
        -0.017591996118426323,
        -0.026763400062918663,
        -0.029348840937018394,
        0.005206757225096226,
        -0.008465277031064034,
        -0.013026924803853035,
        0.009631595574319363,
        -0.0020925954449921846,
        -0.01000581867992878,
        -0.028459936380386353,
        0.015105404891073704,
        0.019790729507803917,
        0.017976118251681328,
        -0.02063818648457527,
        -0.011217361316084862,
        -0.03297007083892822,
        -0.010400122962892056,
        -0.014987499453127384,
        -0.012315494939684868,
        -0.003807045752182603,
        0.026663627475500107,
        -0.00824224017560482,
        -0.0044300127774477005,
        0.02889709733426571,
        0.03761841356754303,
        -0.01334709394723177,
        -0.003320997580885887,
        -0.021264279261231422,
        -0.025764238089323044,
        -0.007594639901071787,
        0.016831865534186363,
        0.007212324067950249,
        -0.030632445588707924,
        -0.014514793641865253,
        0.03420725092291832,
        -0.03741772472858429,
        -0.033713601529598236,
        -0.004601930733770132,
        0.002696953248232603,
        -0.014631682075560093,
        0.019679026678204536,
        0.009431377053260803,
        -0.007235010154545307,
        -0.0004984535626135767,
        0.013279644772410393,
        0.00658333208411932,
        0.005031249951571226,
        -0.013341931626200676,
        -0.04571167379617691,
        0.0029503058176487684,
        0.02540818601846695,
        -0.013348215259611607,
        -0.006868365686386824,
        0.027097702026367188,
        -0.028309054672718048,
        -0.0035337735898792744,
        0.021697310730814934,
        0.007717582397162914,
        -0.0063665988855063915,
        -0.02122391387820244,
        -0.021568402647972107,
        0.006846353877335787,
        -0.0227044764906168,
        -0.0077357166446745396,
        0.007694324478507042,
        -0.00311396736651659,
        0.017636165022850037,
        -0.0074779074639081955,
        -0.0014378686901181936,
        -0.0080953324213624,
        -0.015175172127783298,
        -0.026107702404260635,
        0.02474265545606613,
        -0.03820056468248367,
        -0.0015363387065008283,
        0.004977933131158352,
        -0.0023414173629134893,
        -0.0035185017623007298,
        -0.021437993273139,
        0.021983828395605087,
        0.01463682483881712,
        -0.006972377188503742,
        0.019278159365057945,
        -0.007589032873511314,
        -0.02718794345855713,
        0.024952270090579987,
        -0.007668489124625921,
        0.015306491404771805,
        -0.0054132831282913685,
        0.01570453681051731,
        0.0048379129730165005,
        0.017520081251859665,
        0.030736973509192467,
        -0.007696890272200108,
        0.020347466692328453,
        -0.026833130046725273,
        -0.003282108809798956,
        0.010234953835606575,
        0.004188407678157091,
        -0.017434317618608475,
        0.020155254751443863,
        0.00038283306639641523,
        0.01961187645792961,
        -0.017255283892154694,
        -0.03265798091888428,
        -0.019804485142230988,
        -0.008647971786558628,
        -0.0033143837936222553,
        -0.027459733188152313,
        -0.006010132376104593,
        0.014136248268187046,
        -0.001515405485406518,
        0.010856629349291325,
        -0.016609936952590942,
        0.002980115357786417,
        0.026380084455013275,
        -0.0020499438978731632,
        0.024649793282151222,
        -0.05715668573975563,
        0.008117718622088432,
        0.027978746220469475,
        0.03065183386206627,
        0.0021753048058599234,
        -0.012921083718538284,
        0.007854877971112728,
        -0.030367650091648102,
        0.0019508474506437778,
        0.020257527008652687,
        0.02357848547399044,
        -0.012896357104182243,
        0.019639160484075546,
        -0.014938157051801682,
        0.019635211676359177,
