{
  "metadata": {
    "torch_version": "2.6.0+cu124",
    "cuda_available": true,
    "python_executable": "/usr/sbin/python3",
    "python_platform": "Linux-6.6.87.2-microsoft-standard-WSL2-x86_64-with-glibc2.41",
    "generated_at": "2026-05-08T00:33:30.863543+00:00",
    "rng_seed": "0xc94bee",
    "phase": "C9.4",
    "tracking_issue": "#806"
  },
  "fixtures": [
    {
      "op": "mha_forward",
      "tag": "small_bias_seq8_float32",
      "dtype": "float32",
      "batch": 2,
      "seq": 8,
      "embed_dim": 16,
      "num_heads": 4,
      "num_kv_heads": 4,
      "bias": true,
      "causal_mask": false,
      "seed": 13192175,
      "input_data": [
        -1.7451905012130737,
        0.6471119523048401,
        -0.0731332004070282,
        -0.0767333135008812,
        -0.43317461013793945,
        0.8471152186393738,
        -0.8079725503921509,
        -1.0837851762771606,
        -0.666573703289032,
        0.5720066428184509,
        0.5834847688674927,
        0.1983150839805603,
        -0.6555089354515076,
        0.9157918691635132,
        -1.8169622421264648,
        -1.061029314994812,
        -1.6267465353012085,
        -0.9099882245063782,
        0.8913004398345947,
        -0.4684617519378662,
        -0.7871213555335999,
        0.2524106502532959,
        0.8982300758361816,
        0.45802944898605347,
        -0.37763863801956177,
        -1.618639349937439,
        0.19244877994060516,
        -0.08806028217077255,
        0.06438987702131271,
        -1.4772670269012451,
        -0.8906989097595215,
        -1.0748332738876343,
        -0.7217175960540771,
        -1.1648694276809692,
        0.3185054659843445,
        -1.6457669734954834,
        -0.5829542279243469,
        0.3250405192375183,
        -0.6049216985702515,
        1.037400484085083,
        2.050261974334717,
        2.0734541416168213,
        -0.9412266612052917,
        -1.2253588438034058,
        2.5905885696411133,
        -0.923958420753479,
        -1.9855071306228638,
        1.623914361000061,
        0.09377720206975937,
        1.497644066810608,
        1.1037952899932861,
        1.1949480772018433,
        0.3554762005805969,
        0.052994534373283386,
        -0.38139981031417847,
        1.2097417116165161,
        -2.2218892574310303,
        0.2513519525527954,
        3.2504255771636963,
        -0.874566912651062,
        -1.1954407691955566,
        0.9724166393280029,
        -0.36038047075271606,
        -0.09852233529090881,
        0.27114495635032654,
        -0.39033615589141846,
        0.2599547207355499,
        -0.8744962811470032,
        0.2937788665294647,
        0.27822986245155334,
        0.09023541957139969,
        0.39409148693084717,
        -1.1168936491012573,
        0.28983423113822937,
        -1.6497442722320557,
        -1.151146411895752,
        0.2611624598503113,
        -0.24793338775634766,
        -0.6812076568603516,
        -1.862553358078003,
        0.5497902035713196,
        0.6309565901756287,
        1.5031256675720215,
        -1.2193468809127808,
        0.47631514072418213,
        -0.05811690166592598,
        0.570210874080658,
        0.216164231300354,
        1.1465083360671997,
        0.9565947651863098,
        -0.314223974943161,
        -1.7683976888656616,
        0.27564340829849243,
        1.0058393478393555,
        -0.3401278853416443,
        -0.5740858912467957,
        2.7265889644622803,
        -0.07468223571777344,
        0.4512993395328522,
        -0.6983892917633057,
        1.109441876411438,
        0.6905773878097534,
        -0.10877738147974014,
        -1.2094436883926392,
        -0.6108666658401489,
        -0.8418405652046204,
        1.1100226640701294,
        0.3463832437992096,
        0.9694022536277771,
        -1.4217016696929932,
        1.1576393842697144,
        -0.9429274201393127,
        0.6529727578163147,
        -0.21190381050109863,
        -0.7371290326118469,
        -2.816680908203125,
        0.23034025728702545,
        -0.14382684230804443,
        -0.7138102650642395,
        -0.013738168403506279,
        0.9739129543304443,
        0.6811302304267883,
        0.22082500159740448,
        1.6151857376098633,
        -0.8804973363876343,
        2.3228609561920166,
        -1.1975746154785156,
        -0.3540447950363159,
        2.8198158740997314,
        0.20071497559547424,
        -0.2825341820716858,
        1.9335955381393433,
        1.7339551448822021,
        -0.07876957952976227,
        -0.45928955078125,
        -0.6924604773521423,
        0.025202028453350067,
        -0.040410928428173065,
        -0.47221675515174866,
        -0.6959215998649597,
        -1.8829230070114136,
        0.21985363960266113,
        0.37584376335144043,
        1.3009059429168701,
        -0.4332979917526245,
        0.7905493378639221,
        1.9818873405456543,
        -0.7924021482467651,
        1.4369819164276123,
        0.28055596351623535,
        -0.7182011008262634,
        -1.7630809545516968,
        -0.6609115600585938,
        -1.5365158319473267,
        0.9538428783416748,
        0.8984107971191406,
        -1.322885274887085,
        -1.4222947359085083,
        -0.7107635736465454,
        2.709845781326294,
        -0.8769348859786987,
        1.6650817394256592,
        -0.35986775159835815,
        0.5384925007820129,
        0.18269680440425873,
        -0.8996068239212036,
        0.95243239402771,
        -0.8033329844474792,
        -2.0913872718811035,
        0.2751094102859497,
        0.6287150979042053,
        0.4968404173851013,
        -0.7639225721359253,
        0.5421702265739441,
        -1.2606302499771118,
        0.17900782823562622,
        1.271415114402771,
        -1.0189632177352905,
        -0.2747512757778168,
        1.9399336576461792,
        -0.30136916041374207,
        0.16191808879375458,
        2.3964357376098633,
        0.5922226309776306,
        0.5387220978736877,
        -2.027172327041626,
        0.7487936615943909,
        1.4385771751403809,
        0.11791793256998062,
        0.22540424764156342,
        -1.464052438735962,
        0.1126878559589386,
        1.247020959854126,
        -0.44444209337234497,
        -0.4705137312412262,
        -0.44218209385871887,
        1.4983196258544922,
        -0.6597453951835632,
        -0.4642825126647949,
        -0.4673803150653839,
        -0.032980069518089294,
        0.39103493094444275,
        0.18926845490932465,
        0.3134775757789612,
        1.2240619659423828,
        -0.7722988128662109,
        0.7275592088699341,
        1.5741417407989502,
        -0.1770230233669281,
        -0.9524182081222534,
        -0.41278040409088135,
        -0.8610413074493408,
        0.7099222540855408,
        -2.5322697162628174,
        -0.34360000491142273,
        -0.10314767807722092,
        -2.08404278755188,
        -2.2661590576171875,
        -0.11374741792678833,
        -1.012383222579956,
        1.6170047521591187,
        0.14552883803844452,
        0.3542723059654236,
        0.6299906373023987,
        -0.6290774345397949,
        -0.26370397210121155,
        1.006235122680664,
        0.7634528875350952,
        -1.5150624513626099,
        -1.1926183700561523,
        -0.9231581687927246,
        -0.2659032940864563,
        -0.9095152020454407,
        -0.3627505600452423,
        0.8311547040939331,
        -0.3658466935157776,
        -1.1661252975463867,
        -1.6635793447494507,
        0.17821750044822693,
        -0.44137170910835266,
        2.029733180999756,
        -0.34817031025886536,
        -0.13240768015384674,
        -1.4256563186645508,
        -1.1429665088653564,
        0.3189568817615509,
        1.0812374353408813,
        0.7137670516967773,
        -1.5931659936904907,
        1.1680002212524414,
        0.006454148795455694,
        -0.2654474675655365,
        0.7445239424705505,
        -0.2721194326877594,
        0.5000383853912354,
        0.9383726716041565
      ],
      "expected_output": [
        11.173840522766113,
        -26.69559097290039,
        -1.7176285982131958,
        -3.923344373703003,
        -42.38250732421875,
        -23.63825798034668,
        -22.71126937866211,
        0.2907629907131195,
        34.150184631347656,
        40.02018737792969,
        8.908835411071777,
        11.388843536376953,
        15.776617050170898,
        -2.593878746032715,
        11.953901290893555,
        -33.35505294799805,
        15.589101791381836,
        -33.243743896484375,
        -21.657072067260742,
        -31.86881446838379,
        -38.38351821899414,
        -11.250500679016113,
        -26.254840850830078,
        4.963637351989746,
        45.2161865234375,
        19.21596336364746,
        18.691078186035156,
        14.856451988220215,
        39.30933380126953,
        20.414506912231445,
        35.230995178222656,
        -18.957483291625977,
        -3.075033187866211,
        -13.594865798950195,
        -3.8384153842926025,
        -26.35127830505371,
        -30.65508270263672,
        8.972743034362793,
        9.248189926147461,
        -36.347923278808594,
        6.580420970916748,
        3.300504207611084,
        7.168692588806152,
        2.4111831188201904,
        16.285978317260742,
        12.819021224975586,
        19.677270889282227,
        14.883841514587402,
        27.382410049438477,
        -28.628950119018555,
        4.013744831085205,
        -32.29770278930664,
        -29.172348022460938,
        -25.083200454711914,
        -7.17115592956543,
        -25.39655876159668,
        22.55413246154785,
        55.09877395629883,
        14.7352876663208,
        6.224348068237305,
        8.67844009399414,
        -5.4296183586120605,
        39.52579879760742,
        -1.1886790990829468,
        12.211592674255371,
        -23.275196075439453,
        2.753041982650757,
        -12.71523666381836,
        -42.28316116333008,
        -20.678916931152344,
        -17.63230323791504,
        -13.65482234954834,
        25.59760856628418,
        42.71714782714844,
        4.295386791229248,
        6.07367467880249,
        11.169716835021973,
        -6.57604455947876,
        13.286311149597168,
        -15.453068733215332,
        22.28614616394043,
        -29.55534553527832,
        -12.463260650634766,
        -5.391873359680176,
        -67.328857421875,
        -17.768962860107422,
        -35.81789779663086,
        -24.33730125427246,
        8.236815452575684,
        40.793704986572266,
        -1.2877709865570068,
        -1.7982683181762695,
        26.972240447998047,
        -31.524694442749023,
        -0.9156087636947632,
        51.0670280456543,
        -4.039700508117676,
        9.134722709655762,
        -5.251336097717285,
        17.407827377319336,
        -19.92397689819336,
        4.069165229797363,
        3.2532849311828613,
        -26.613466262817383,
        -26.770559310913086,
        -5.900824546813965,
        15.337864875793457,
        -11.561335563659668,
        14.288582801818848,
        -29.3933162689209,
        -9.49825668334961,
        29.074758529663086,
        27.14052963256836,
        -23.909549713134766,
        -11.336478233337402,
        -26.6541690826416,
        -46.0969352722168,
        -31.322986602783203,
        -27.202579498291016,
        -13.757159233093262,
        18.954561233520508,
        49.19306182861328,
        15.901532173156738,
        0.2657689154148102,
        29.978435516357422,
        -13.726852416992188,
        9.115633010864258,
        40.83570861816406,
        -6.1352009773254395,
        -8.014081001281738,
        2.2438805103302,
        35.42034149169922,
        -25.159154891967773,
        6.373417854309082,
        5.241888523101807,
        7.072382926940918,
        -16.431711196899414,
        13.485655784606934,
        -31.08051109313965,
        8.88123893737793,
        -32.283538818359375,
        -1.3945057392120361,
        -19.998058319091797,
        15.077009201049805,
        1.762581467628479,
        1.5220186710357666,
        -1.8803654909133911,
        30.296070098876953,
        -16.369089126586914,
        -5.443055152893066,
        3.461146831512451,
        12.688657760620117,
        -2.156538724899292,
        15.2549409866333,
        -4.7628583908081055,
        10.547959327697754,
        -11.517683982849121,
        -8.366044044494629,
        -33.16223907470703,
        3.545111894607544,
        -3.1501195430755615,
        -13.356443405151367,
        1.7730154991149902,
        44.88068389892578,
        -33.0078010559082,
        -14.144486427307129,
        -11.396679878234863,
        -0.3977440595626831,
        -16.558340072631836,
        12.316353797912598,
        -1.7789299488067627,
        1.1692458391189575,
        -4.612640380859375,
        -25.806297302246094,
        -33.04180145263672,
        13.934440612792969,
        -3.111743211746216,
        -3.0811188220977783,
        4.759087085723877,
        19.12742042541504,
        -19.73366355895996,
        -18.55630111694336,
        2.3120155334472656,
        -5.097906589508057,
        -16.408639907836914,
        17.16499900817871,
        -5.369139194488525,
        -4.458521366119385,
        -8.495625495910645,
        -16.651098251342773,
        -24.512937545776367,
        19.61874771118164,
        -5.014743328094482,
        12.264191627502441,
        2.4709980487823486,
        28.951580047607422,
        3.018935203552246,
        0.10456287115812302,
        22.681211471557617,
        2.3824119567871094,
        -12.555718421936035,
        2.771730422973633,
        -0.3305208683013916,
        2.023271083831787,
        -18.343809127807617,
        -4.028026580810547,
        -33.75623321533203,
        2.335552215576172,
        -15.599620819091797,
        13.52180290222168,
        2.78779673576355,
        39.33466339111328,
        -1.0236241817474365,
        -1.1700249910354614,
        8.505627632141113,
        8.821765899658203,
        -9.04497241973877,
        -4.973341941833496,
        -2.6534411907196045,
        2.9700467586517334,
        -14.936361312866211,
        -11.300025939941406,
        -47.158119201660156,
        -8.22186279296875,
        -28.878000259399414,
        19.58687973022461,
        12.152056694030762,
        23.579959869384766,
        20.807968139648438,
        12.303071975708008,
        10.978609085083008,
        -20.951854705810547,
        -16.047813415527344,
        -42.46519088745117,
        16.555789947509766,
        3.2317965030670166,
        2.140338897705078,
        -4.6781907081604,
        -5.989081859588623,
        -24.782983779907227,
        -11.265292167663574,
        -34.454978942871094,
        41.106170654296875,
        41.21042251586914,
        -27.286447525024414,
        12.304518699645996,
        17.45301055908203,
        -9.588057518005371,
        -43.06538009643555,
        9.720831871032715,
        8.908872604370117,
        31.97612953186035,
        -26.99182891845703,
        -1.7171710729599,
        -29.272560119628906,
        8.32929515838623
      ],
      "weight_q_proj": [
        0.7936391830444336,
        0.261927992105484,
        1.2479798793792725,
        0.02149728126823902,
        -1.487420916557312,
        -0.2823541760444641,
        -1.9748743772506714,
        0.6025514602661133,
        -0.5353701114654541,
        0.9631789326667786,
        0.010522313416004181,
        0.0005772421136498451,
        -1.0399881601333618,
        1.8262473344802856,
        1.5104873180389404,
        -1.5804835557937622,
        -0.6182390451431274,
        1.47076416015625,
        0.4531472623348236,
        1.909881353378296,
        0.5303322076797485,
        1.183849811553955,
        -1.4767537117004395,
        0.14963260293006897,
        -1.105074167251587,
        1.4392722845077515,
        -0.7020403146743774,
        1.0487350225448608,
        0.48713356256484985,
        -0.3980145752429962,
        0.19830329716205597,
        -0.6548588871955872,
        -0.8799450993537903,
        -1.4131460189819336,
        -0.8745665550231934,
        -1.3375637531280518,
        -0.6629088521003723,
        -0.7258501052856445,
        1.6289100646972656,
        -1.6360323429107666,
        -0.1416313499212265,
        0.4212937653064728,
        -1.0423650741577148,
        -0.4901260435581207,
        0.614356279373169,
        -1.3434813022613525,
        -1.2733681201934814,
        1.8425977230072021,
        -0.5808644890785217,
        0.49255111813545227,
        -1.1061952114105225,
        0.13180659711360931,
        -1.2759664058685303,
        -0.2749811112880707,
        1.1646095514297485,
        0.10727924108505249,
        0.156677708029747,
        -0.9978985786437988,
        0.5613434314727783,
        -1.0739587545394897,
        -0.0965135470032692,
        -0.6364491581916809,
        0.13286283612251282,
        0.2889639437198639,
        0.1273898184299469,
        -0.009687020443379879,
        1.2544443607330322,
        -0.09292060881853104,
        -1.1064677238464355,
        0.5074421763420105,
        -0.2794263958930969,
        0.01598038151860237,
        -0.07612152397632599,
        0.36157914996147156,
        -0.6036215424537659,
        0.6486862301826477,
        -0.6448553800582886,
        0.2567177414894104,
        0.21610963344573975,
        0.21341057121753693,
        -0.6141861081123352,
        0.3689228296279907,
        -0.7434996366500854,
        -0.04931926727294922,
        -0.2345176339149475,
        0.8095482587814331,
        0.07563742250204086,
        -2.0099384784698486,
        0.7906924486160278,
        -1.2379121780395508,
        0.2666744291782379,
        -1.1000159978866577,
        1.3882094621658325,
        0.24011288583278656,
        0.31809473037719727,
        -0.25416725873947144,
        1.218522548675537,
        1.061833381652832,
        1.207707405090332,
        -1.8420006036758423,
        0.3774290978908539,
        1.707221269607544,
        0.6208463907241821,
        0.2638055682182312,
        0.9856211543083191,
        0.37595367431640625,
        -1.1803840398788452,
        0.544001579284668,
        -0.9383391737937927,
        0.8414127230644226,
        0.3025745451450348,
        1.6207270622253418,
        -0.3979629874229431,
        0.5794858336448669,
        -0.7623717188835144,
        -0.9306822419166565,
        0.9585750699043274,
        0.6627087593078613,
        2.8259739875793457,
        -1.1815563440322876,
        -0.2753818929195404,
        0.7626118659973145,
        -0.040378913283348083,
        0.48654887080192566,
        0.4948410391807556,
        -2.6303586959838867,
        -1.0489745140075684,
        0.21994447708129883,
        -0.8403032422065735,
        -0.4453577399253845,
        -1.034794807434082,
        -0.883923351764679,
        -1.0563952922821045,
        0.35584938526153564,
        -1.8446632623672485,
        -1.4077891111373901,
        0.013433928601443768,
        -0.30401811003685,
        1.1673402786254883,
        -0.12710343301296234,
        0.7346595525741577,
        -0.059110261499881744,
        -0.8228628635406494,
        -0.8519876003265381,
        -1.860661268234253,
        1.006510853767395,
        -0.5368613004684448,
        -0.06029542535543442,
        2.0275721549987793,
        -0.06941527128219604,
        -2.195662498474121,
        -0.2154114991426468,
        -0.7900331020355225,
        0.4824253022670746,
        -0.7824546694755554,
        0.03555949032306671,
        -1.7415188550949097,
        0.6579797863960266,
        1.0021555423736572,
        -0.1697128415107727,
        0.17695985734462738,
        -1.2911174297332764,
        2.1791799068450928,
        -1.3604329824447632,
        -1.547793984413147,
        0.9564648866653442,
        0.3828508257865906,
        -0.5076913833618164,
        -1.154685616493225,
        1.301091194152832,
        0.12962891161441803,
        -0.7769577503204346,
        -0.524124264717102,
        1.3881957530975342,
        1.0042668581008911,
        0.7263834476470947,
        0.8065303564071655,
        0.6602134108543396,
        0.8960380554199219,
        -2.9103193283081055,
        0.21814210712909698,
        -1.3484346866607666,
        0.4186439514160156,
        0.6116971969604492,
        -0.3254019021987915,
        1.7041069269180298,
        1.0581068992614746,
        0.29312822222709656,
        0.272325336933136,
        1.3166974782943726,
        1.2549183368682861,
        0.4989417493343353,
        0.5327929854393005,
        -0.47095388174057007,
        0.7049576044082642,
        -0.5569058656692505,
        1.2628188133239746,
        1.5264185667037964,
        -1.2945311069488525,
        -0.5324700474739075,
        1.0935970544815063,
        1.8676838874816895,
        0.615361213684082,
        2.2101845741271973,
        1.3580204248428345,
        -0.5397318601608276,
        0.3701068162918091,
        0.519527792930603,
        -0.5033454895019531,
        1.0359623432159424,
        1.5644701719284058,
        0.010647512972354889,
        0.4358691871166229,
        1.0336713790893555,
        1.4425431489944458,
        -0.11646390706300735,
        0.8327536582946777,
        -0.340432733297348,
        -0.18386684358119965,
        -0.02600136399269104,
        -1.541481852531433,
        0.5154828429222107,
        -0.9286903738975525,
        -1.9847445487976074,
        0.9428356289863586,
        -0.5680555105209351,
        -0.04935776814818382,
        -0.5818715691566467,
        0.3377128839492798,
        1.988450527191162,
        1.6618096828460693,
        -0.6298337578773499,
        -1.2525262832641602,
        0.7728247046470642,
        1.1861566305160522,
        0.17172925174236298,
        -0.3027280271053314,
        0.8184995651245117,
        -1.286576509475708,
        0.11460619419813156,
        0.8422231674194336,
        -0.8241494297981262,
        -1.3075116872787476,
        -0.1594284474849701,
        -2.720215082168579,
        -2.0571839809417725,
        0.4806740880012512,
        -0.8574623465538025,
        -0.391880065202713,
        1.464332103729248,
        -1.0586198568344116,
        -0.9902620315551758,
        -0.20078244805335999,
        -0.9404719471931458,
        -1.3617675304412842,
        -0.3457348346710205
      ],
      "weight_k_proj": [
        1.4774435758590698,
        -0.34752392768859863,
        0.5024393200874329,
        -0.20066338777542114,
        -0.9387317299842834,
        0.8810276985168457,
        0.10930192470550537,
        0.3533044755458832,
        -0.8000465035438538,
        0.6745810508728027,
        0.982265830039978,
        -1.3673869371414185,
        2.451322317123413,
        -1.2553682327270508,
        -0.13867227733135223,
        -2.445716381072998,
        -0.3643091917037964,
        1.634202241897583,
        -0.014504124410450459,
        -1.875376582145691,
        0.18155448138713837,
        0.18530772626399994,
        -0.6172716617584229,
        -2.080146074295044,
        0.10373539477586746,
        0.7224538922309875,
        0.513164222240448,
        0.9295433163642883,
        0.13827501237392426,
        -0.8506503701210022,
        1.0447465181350708,
        -2.064373016357422,
        -1.6594300270080566,
        -0.1476847231388092,
        0.09213493764400482,
        -1.2698564529418945,
        0.6247519850730896,
        -0.2506938576698303,
        -0.1486893892288208,
        -0.6880469918251038,
        -0.3175475299358368,
        -0.32862070202827454,
        0.4876577854156494,
        0.40179210901260376,
        -0.8997540473937988,
        0.48778244853019714,
        -0.13411667943000793,
        1.193240761756897,
        -0.08728548139333725,
        0.1238606870174408,
        0.001557155861519277,
        -1.7851017713546753,
        -1.325461506843567,
        -0.6547038555145264,
        1.6596730947494507,
        -1.8621572256088257,
        -0.7472779154777527,
        0.07784722000360489,
        -2.007093667984009,
        -0.29964613914489746,
        0.08932831138372421,
        0.3000591993331909,
        -0.1441863775253296,
        -0.22082878649234772,
        -0.7883439064025879,
        1.7930762767791748,
        0.4464132785797119,
        -1.0277695655822754,
        -0.284174382686615,
        -0.6467511057853699,
        0.826126217842102,
        -1.047178030014038,
        -1.6323565244674683,
        0.5527605414390564,
        -1.0519874095916748,
        -0.11891307681798935,
        -0.8512372970581055,
        0.28618454933166504,
        -0.5630037784576416,
        1.0356714725494385,
        0.9599889516830444,
        0.9519833326339722,
        2.4551737308502197,
        0.8004339337348938,
        -0.2645752429962158,
        0.07638047635555267,
        -0.8553820252418518,
        -0.6293780207633972,
        0.44232097268104553,
        0.8926376700401306,
        -1.6774077415466309,
        1.3316270112991333,
        -0.16262544691562653,
        0.8905388712882996,
        -1.070116639137268,
        -0.7666226625442505,
        1.0449429750442505,
        -0.09619846194982529,
        -0.7753233313560486,
        0.2707901895046234,
        -1.582280158996582,
        -0.8923856616020203,
        0.2940424084663391,
        -0.4534147381782532,
        -0.1871107965707779,
        -0.03491681069135666,
        -0.4691831171512604,
        0.6938091516494751,
        -1.5088759660720825,
        -1.207338571548462,
        1.1226587295532227,
        1.0644252300262451,
        0.005225212778896093,
        -1.6047672033309937,
        0.6052417159080505,
        1.3090850114822388,
        0.5579977631568909,
        -0.09963557124137878,
        -1.5771105289459229,
        0.83540940284729,
        -1.4225600957870483,
        0.6403084397315979,
        1.471879482269287,
        1.8028568029403687,
        2.1714775562286377,
        -0.7320538759231567,
        -0.380094438791275,
        -0.2980022430419922,
        1.3135908842086792,
        1.886850357055664,
        -1.1391757726669312,
        2.6917381286621094,
        -1.6420438289642334,
        0.05259092152118683,
        -0.34107857942581177,
        0.879266083240509,
        -0.4436616003513336,
        -0.46582740545272827,
        0.509479284286499,
        0.21910420060157776,
        -0.40342530608177185,
        -0.09389645606279373,
        0.23244354128837585,
        0.5436800718307495,
        -1.4241549968719482,
        1.1037395000457764,
        -1.2815499305725098,
        0.2174074947834015,
        0.6469516754150391,
        -0.3224475681781769,
        -2.48138427734375,
        0.15155449509620667,
        -0.17580679059028625,
        -0.5001428127288818,
        0.7533275485038757,
        -0.9656620621681213,
        -1.075170874595642,
        -0.2664198875427246,
        -0.6326590180397034,
        -0.6855633854866028,
        -1.5260432958602905,
        -0.19642016291618347,
        -0.4644867777824402,
        0.23158173263072968,
        0.7222548127174377,
        0.3019108772277832,
        0.7316771745681763,
        -1.5834022760391235,
        0.5673852562904358,
        0.0821102187037468,
        0.6491090655326843,
        -0.1426059901714325,
        0.0025748007465153933,
        -1.3587702512741089,
        0.10782032459974289,
        1.4385591745376587,
        0.2565769553184509,
        -1.5147709846496582,
        -0.30987903475761414,
        -0.0553182028234005,
        1.8006960153579712,
        0.4120948910713196,
        -1.697031021118164,
        -0.8752805590629578,
        0.8038826584815979,
        1.3888508081436157,
        -0.8253223896026611,
        0.5555181503295898,
        0.3569638729095459,
        -2.1135237216949463,
        0.4257444739341736,
        1.403667688369751,
        0.04923974350094795,
        0.6169142127037048,
        0.8573887348175049,
        -0.483586847782135,
        -0.5819288492202759,
        0.23977282643318176,
        1.0017300844192505,
        -0.8208341598510742,
        -0.1448545902967453,
        -0.05497877672314644,
        -1.324554681777954,
        -0.5215523838996887,
        -1.0594321489334106,
        -0.4463212788105011,
        0.5455447435379028,
        0.024343598634004593,
        -0.20909544825553894,
        0.5321272611618042,
        -0.04518945887684822,
        0.5215703248977661,
        0.6283702850341797,
        1.7343538999557495,
        2.5566272735595703,
        -0.07589905709028244,
        0.3295324444770813,
        0.0998605415225029,
        -1.3265821933746338,
        -0.2950842082500458,
        0.7961332201957703,
        -0.04351918026804924,
        -0.5925235152244568,
        -0.6047284007072449,
        0.27760565280914307,
        -1.1589514017105103,
        1.1589840650558472,
        -0.8930615782737732,
        1.1534768342971802,
        -0.36963707208633423,
        0.6596899032592773,
        0.8134523630142212,
        0.39114686846733093,
        0.4027807414531708,
        1.4074033498764038,
        -0.29408055543899536,
        1.322906255722046,
        -0.5836238265037537,
        0.582356333732605,
        3.005678415298462,
        -0.9347606897354126,
        -1.3559223413467407,
        0.28092777729034424,
        -0.24565257132053375,
        0.9325923919677734,
        0.16066518425941467,
        1.3737062215805054,
        -0.25813862681388855,
        0.6944612264633179,
        0.4592416286468506,
        -0.749075174331665,
        -0.4592549204826355,
        -1.0665860176086426,
        0.699212908744812,
        0.3269573450088501,
        0.9378413558006287
      ],
      "weight_v_proj": [
        1.0545814037322998,
        0.7390212416648865,
        -0.4977772831916809,
        -2.033071517944336,
        1.3409262895584106,
        1.3551185131072998,
        -0.12591560184955597,
        0.4471396505832672,
        -1.0743534564971924,
        -0.18203718960285187,
        0.6075981259346008,
        -1.3644094467163086,
        0.23397506773471832,
        -1.070902943611145,
        0.7330405116081238,
        0.6524601578712463,
        -0.5532335042953491,
        -0.7923157215118408,
        -1.7886905670166016,
        2.2081518173217773,
        1.8201237916946411,
        -0.8511158227920532,
        -0.48237931728363037,
        -0.15073594450950623,
        2.814288377761841,
        -0.05721358582377434,
        1.5401066541671753,
        0.06750412285327911,
        -0.32094189524650574,
        -1.6966830492019653,
        0.8732561469078064,
        1.8096963167190552,
        0.9885283708572388,
        -2.066526412963867,
        -0.6059421896934509,
        -0.846645176410675,
        -0.2414982169866562,
        -0.8619654774665833,
        0.8530851602554321,
        -1.0516387224197388,
        -0.34905850887298584,
        0.3989393413066864,
        0.14635150134563446,
        1.477541446685791,
        0.864780068397522,
        1.178279995918274,
        1.9356704950332642,
        -0.8545767664909363,
        0.1551421880722046,
        0.25840386748313904,
        0.6601758599281311,
        -0.5867305397987366,
        -0.5306975245475769,
        0.9546689391136169,
        -0.2135675996541977,
        1.3894572257995605,
        0.17554467916488647,
        2.0168752670288086,
        -0.2973693907260895,
        0.761540412902832,
        -0.5965065956115723,
        0.9363963603973389,
        -1.3170515298843384,
        0.2559620141983032,
        0.8685095906257629,
        0.8275172114372253,
        3.6411406993865967,
        1.3161472082138062,
        1.208362340927124,
        -0.23492030799388885,
        -1.8468937873840332,
        -1.2978171110153198,
        -0.397012859582901,
        -0.41966432332992554,
        -0.0838845819234848,
        1.9396014213562012,
        0.5872814655303955,
        0.8660117983818054,
        0.19561553001403809,
        -0.4961264729499817,
        1.8707914352416992,
        0.21178129315376282,
        -0.05975660681724548,
        -0.6209180355072021,
        0.995045006275177,
        -1.1677192449569702,
        -0.008994120173156261,
        -1.1062358617782593,
        -0.4648735225200653,
        -2.291935682296753,
        0.32749003171920776,
        0.522884726524353,
        -0.8013569712638855,
        -0.6553022265434265,
        1.4091897010803223,
        0.6968502998352051,
        1.3266624212265015,
        -1.4835491180419922,
        -1.0731534957885742,
        -0.5015528798103333,
        1.1436737775802612,
        -0.34543895721435547,
        -1.2518010139465332,
        0.20249488949775696,
        -1.4408262968063354,
        0.8848453760147095,
        -0.49984419345855713,
        0.3447422981262207,
        0.07409720867872238,
        2.269505500793457,
        1.112054467201233,
        -0.021580712869763374,
        0.3894363045692444,
        1.0563631057739258,
        0.7439519166946411,
        -1.743568778038025,
        0.13061736524105072,
        1.117469072341919,
        0.8188951015472412,
        1.547627329826355,
        -0.05612612143158913,
        -1.5870765447616577,
        -0.6454716920852661,
        -1.103184461593628,
        1.1120716333389282,
        -1.7203811407089233,
        0.3033761978149414,
        1.0790127515792847,
        1.2784466743469238,
        -1.49297297000885,
        -0.5678389668464661,
        0.9949826002120972,
        0.005012745037674904,
        -0.10218311846256256,
        0.5962397456169128,
        -0.7938524484634399,
        -0.961638331413269,
        -0.7922841906547546,
        -0.03133038431406021,
        0.5199066400527954,
        0.6740525960922241,
        -1.118775486946106,
        0.613978385925293,
        -0.09223323315382004,
        0.553185224533081,
        0.23007889091968536,
        0.7864580750465393,
        -0.12602598965168,
        -0.803399920463562,
        1.663224458694458,
        1.3762919902801514,
        -0.06450901180505753,
        0.74102383852005,
        -1.0247241258621216,
        -0.9656473398208618,
        -0.7450655102729797,
        1.6965006589889526,
        0.41634601354599,
        -0.14514142274856567,
        -1.0605785846710205,
        0.9266636371612549,
        0.7744033336639404,
        -0.6020255088806152,
        -0.3914920687675476,
        -0.9414184093475342,
        -0.3199101984500885,
        0.45172154903411865,
        -1.635286569595337,
        0.6519196033477783,
        -1.1123459339141846,
        0.8904723525047302,
        1.0109730958938599,
        -0.3396928310394287,
        2.74924898147583,
        0.28426188230514526,
        0.49072590470314026,
        0.5159269571304321,
        0.15395484864711761,
        0.34678518772125244,
        -2.0662174224853516,
        -1.1335759162902832,
        1.2460592985153198,
        -1.0769003629684448,
        -0.8753641843795776,
        0.3659627139568329,
        -0.42911988496780396,
        -0.1189751997590065,
        -1.3068797588348389,
        1.399588704109192,
        0.3533436357975006,
        0.8978103995323181,
        -0.8615468740463257,
        -0.5402225255966187,
        -0.7034087181091309,
        -0.10022296756505966,
        0.9406049251556396,
        1.2783914804458618,
        -0.09993748366832733,
        -0.4809858202934265,
        0.06285636126995087,
        -0.15379081666469574,
        2.2207820415496826,
        -0.6658887267112732,
        0.8771498799324036,
        -0.39196234941482544,
        0.454559326171875,
        -0.25089848041534424,
        -1.308166742324829,
        0.48947227001190186,
        0.5676535964012146,
        -0.4059632122516632,
        3.3694961071014404,
        -0.04152709245681763,
        0.14288629591464996,
        1.1474438905715942,
        -0.5588632225990295,
        -1.9844204187393188,
        -1.665148138999939,
        0.2892449200153351,
        0.7990659475326538,
        -1.4192488193511963,
        -0.5091249346733093,
        0.9448038339614868,
        0.0016896155430004,
        -1.124699354171753,
        0.97425377368927,
        0.6233320236206055,
        -1.2331295013427734,
        -0.020260747522115707,
        0.5591937899589539,
        -0.7357977628707886,
        -0.39433395862579346,
        -1.022059679031372,
        -0.6633043885231018,
        -0.8017518520355225,
        0.3310537338256836,
        0.2634056806564331,
        0.9652177691459656,
        0.37998130917549133,
        1.5198904275894165,
        0.1887042224407196,
        -0.808340311050415,
        -0.2888566553592682,
        0.6568995118141174,
        0.37522023916244507,
        1.4097578525543213,
        0.07098400592803955,
        -1.1566230058670044,
        0.8258552551269531,
        -0.14751318097114563,
        0.10788630694150925,
        0.38724958896636963,
        1.504984974861145,
        1.2599929571151733,
        -0.9400131106376648,
        -1.9618514776229858
      ],
      "weight_out_proj": [
        -0.3522404432296753,
        0.47547391057014465,
        -0.20444141328334808,
        0.17543065547943115,
        0.5729833245277405,
        -0.998691201210022,
        -0.23353926837444305,
        0.4369768798351288,
        -1.0005391836166382,
        -0.9458655714988708,
        -0.7010954022407532,
        1.664717197418213,
        0.8368293642997742,
        -0.49330732226371765,
        0.5714444518089294,
        -0.378820538520813,
        0.6511666178703308,
        0.04195418953895569,
        -0.4081302881240845,
        0.16257204115390778,
        -0.3859955966472626,
        0.13161899149417877,
        -0.5902217626571655,
        -1.7310254573822021,
        0.7494196891784668,
        0.9954927563667297,
        0.3199644982814789,
        -0.08268173784017563,
        0.18591997027397156,
        0.9600786566734314,
        -2.4983267784118652,
        1.1352711915969849,
        0.5400061011314392,
        -0.8472259640693665,
        0.6041374206542969,
        -1.4029273986816406,
        -0.4370795786380768,
        0.7932966351509094,
        -0.2566138803958893,
        0.07237892597913742,
        -0.26479217410087585,
        0.6667312383651733,
        0.16583672165870667,
        -0.05560505762696266,
        0.5813538432121277,
        0.600491464138031,
        1.935902714729309,
        -0.8991677761077881,
        0.44909894466400146,
        0.25456926226615906,
        -0.8401373624801636,
        -1.22040593624115,
        -0.08564493060112,
        2.067347288131714,
        1.1766369342803955,
        -0.805415689945221,
        -0.42046526074409485,
        -1.5145280361175537,
        -0.4600808620452881,
        -2.002916097640991,
        -1.5814563035964966,
        0.7796437740325928,
        -0.4425864815711975,
        -0.24897515773773193,
        0.6614416241645813,
        -0.0008913809433579445,
        0.7014859914779663,
        0.5529512166976929,
        -1.0128220319747925,
        -1.6716505289077759,
        -0.3097311556339264,
        -1.234324336051941,
        1.060337781906128,
        1.3846179246902466,
        -0.6098148226737976,
        0.26901644468307495,
        1.6515105962753296,
        1.9787241220474243,
        -0.8442506790161133,
        0.11742530763149261,
        -1.5721644163131714,
        -0.1521703600883484,
        1.9703223705291748,
        0.07435928285121918,
        0.6687675714492798,
        1.304582953453064,
        -0.7667364478111267,
        0.2423982173204422,
        -0.9582671523094177,
        -0.9136613607406616,
        0.21832014620304108,
        0.5404970049858093,
        -0.7324623465538025,
        0.9677649736404419,
        -1.632428765296936,
        -1.472533941268921,
        1.0728821754455566,
        -0.5199730396270752,
        0.9003758430480957,
        0.21256107091903687,
        0.2457634061574936,
        -1.006018877029419,
        -0.27901819348335266,
        -0.19686654210090637,
        1.8838229179382324,
        -0.5659542679786682,
        -0.04897911101579666,
        2.548668146133423,
        -0.14401444792747498,
        1.1624938249588013,
        -0.9276063442230225,
        -1.9228459596633911,
        -0.8694290518760681,
        1.3257026672363281,
        -1.5103073120117188,
        0.1687857061624527,
        0.08850428462028503,
        -1.7327868938446045,
        0.30177587270736694,
        -0.5679617524147034,
        0.3351191282272339,
        -1.0620622634887695,
        0.5569753646850586,
        -0.5698294043540955,
        -0.5561211705207825,
        -0.08443393558263779,
        1.7701714038848877,
        0.8327882885932922,
        -0.3644077777862549,
        0.7170576453208923,
        0.24655453860759735,
        0.7737472653388977,
        0.587001621723175,
        -1.5115625858306885,
        -0.6930041909217834,
        -0.12270083278417587,
        0.5776605606079102,
        -0.36843225359916687,
        0.0289983619004488,
        -0.412172794342041,
        1.5729950666427612,
        -1.4028384685516357,
        -0.8006755113601685,
        0.36710894107818604,
        0.05837075039744377,
        0.6177614331245422,
        -0.857231080532074,
        -1.223350167274475,
        0.12190306186676025,
        -0.7426316142082214,
        -0.039200421422719955,
        -0.42770451307296753,
        0.7095244526863098,
        0.1874590516090393,
        -0.9239911437034607,
        0.807378888130188,
        -0.5874960422515869,
        -1.9180108308792114,
        1.0177465677261353,
        -0.25960880517959595,
        0.35719239711761475,
        -2.6875617504119873,
        -0.38988256454467773,
        -0.6906677484512329,
        -0.5619388818740845,
        -0.792853057384491,
        -0.27872899174690247,
        1.8289740085601807,
        0.5488620400428772,
        -0.5318851470947266,
        -0.3454299569129944,
        0.29314368963241577,
        -1.2402126789093018,
        -0.0015508807264268398,
        -1.1963657140731812,
        0.36224356293678284,
        0.4191094636917114,
        0.11004079878330231,
        0.5344462990760803,
        0.5301570296287537,
        0.48125073313713074,
        -0.4043903946876526,
        -0.5318413376808167,
        0.4378255605697632,
        0.07390342652797699,
        -0.769566535949707,
        -0.3120073974132538,
        -0.16474273800849915,
        -0.7873860001564026,
        0.03015376441180706,
        2.8192169666290283,
        -0.8807716369628906,
        -0.705291748046875,
        -2.345858573913574,
        -1.4175090789794922,
        0.029968872666358948,
        1.0423904657363892,
        -1.0313897132873535,
        0.47326040267944336,
        1.5818994045257568,
        -0.4261360168457031,
        -0.4286960959434509,
        0.46138015389442444,
        -0.34435179829597473,
        0.6129037737846375,
        -0.8273881673812866,
        -0.9844491481781006,
        0.851586639881134,
        -0.3811391592025757,
        0.06723387539386749,
        1.2180603742599487,
        1.2658840417861938,
        -0.9492192268371582,
        -1.2357962131500244,
        -0.6569465398788452,
        -0.848466694355011,
        1.6960973739624023,
        -1.0287238359451294,
        0.4390163719654083,
        1.8345153331756592,
        -0.33874472975730896,
        -0.16489066183567047,
        0.7336598038673401,
        -0.49695226550102234,
        0.23392491042613983,
        0.20913149416446686,
        2.068185567855835,
        1.6893997192382812,
        0.0966508537530899,
        -2.3849806785583496,
        0.8114040493965149,
        0.3772188425064087,
        0.37855565547943115,
        0.27939310669898987,
        -1.1954476833343506,
        1.5653644800186157,
        -0.6537837386131287,
        -0.31318071484565735,
        -0.49174800515174866,
        1.2397425174713135,
        -1.030956506729126,
        -0.276108980178833,
        -1.4472239017486572,
        0.45134782791137695,
        -0.6992301940917969,
        2.0648858547210693,
        -0.2824220359325409,
        -0.9564089775085449,
        -0.9957023859024048,
        1.1154767274856567,
        -1.0264936685562134,
        1.0870156288146973,
        -0.1713045835494995,
        -0.2630474865436554,
        1.6690586805343628,
        -0.46877357363700867
      ],
      "weight_q_bias": [
        0.0,
        0.0,
        0.0,
        0.0,
        0.0,
        0.0,
        0.0,
        0.0,
        0.0,
        0.0,
        0.0,
        0.0,
        0.0,
        0.0,
        0.0,
        0.0
      ],
      "weight_k_bias": [
        0.0,
        0.0,
        0.0,
        0.0,
        0.0,
        0.0,
        0.0,
        0.0,
        0.0,
        0.0,
        0.0,
        0.0,
        0.0,
        0.0,
        0.0,
        0.0
      ],
      "weight_v_bias": [
        0.0,
        0.0,
        0.0,
        0.0,
        0.0,
        0.0,
        0.0,
        0.0,
        0.0,
        0.0,
        0.0,
        0.0,
        0.0,
        0.0,
        0.0,
        0.0
      ],
      "weight_out_bias": [
        0.0,
        0.0,
        0.0,
        0.0,
        0.0,
        0.0,
        0.0,
        0.0,
        0.0,
        0.0,
        0.0,
        0.0,
        0.0,
        0.0,
        0.0,
        0.0
      ]
    },
    {
      "op": "mha_forward",
      "tag": "small_bias_seq8_float64",
      "dtype": "float64",
      "batch": 2,
      "seq": 8,
      "embed_dim": 16,
      "num_heads": 4,
      "num_kv_heads": 4,
      "bias": true,
      "causal_mask": false,
      "seed": 13192175,
      "input_data": [
        1.351910697974212,
        -0.14327276444923434,
        0.3205547519545006,
        -1.7506824507584353,
        -0.2808870345987615,
        -0.07648223198786548,
        0.6115246821216793,
        1.1215896186779992,
        0.1386005956164074,
        -0.7807316456722502,
        0.40419879877611364,
        1.1791888258974739,
        1.0818324943018611,
        0.5830124901758679,
        -0.4677660192415591,
        0.03778938878259924,
        -0.342299096129189,
        0.49400377676235735,
        -0.766206485798182,
        0.3800194711358023,
        1.001984764281926,
        -0.8979166806721711,
        -0.5495348418154354,
        1.3619232299414892,
        0.6696265386370428,
        -0.0690270155045555,
        1.5182324853726956,
        0.06979960712719861,
        0.35156258666078344,
        -0.5172929512455129,
        0.6000681875219677,
        -0.3140452667806544,
        -1.8458996335456932,
        -0.17724121398929576,
        0.9554316568609459,
        -1.3154764321874846,
        -0.7707059913367992,
        -0.05180095334224015,
        -1.122777486363217,
        -0.24132986950044283,
        0.7939899932113512,
        -0.04487079317687373,
        0.9454018031265112,
        -0.7503932533808184,
        0.3586424374921475,
        -0.6641412620703254,
        -1.981576034178031,
        0.5557357042268326,
        1.8903927100098368,
        0.4315169351258722,
        -0.19431489960779036,
        2.277529205467596,
        0.020121914365182094,
        -0.8189586848939805,
        -1.0162017756038348,
        -0.20199128404990427,
        -0.2738225879371426,
        0.1404075836417052,
        -0.8177680719669423,
        -0.3907678462312513,
        1.59407576651441,
        -0.8655689962463214,
        1.9704102845049705,
        0.46179312166941633,
        1.1863151761483122,
        -0.1210951696944385,
        0.5907204545673922,
        0.2644449656579079,
        -0.010572579797932679,
        -0.7821685894140301,
        2.2969730416597884,
        0.5202996828428241,
        1.5445947805428286,
        0.5001560378200552,
        -1.429743849848139,
        0.787382968415213,
        0.1509214996457793,
        -0.3748307738922853,
        0.7881671544853686,
        -0.02167701257484989,
        0.8583984963164277,
        0.8273482783076096,
        -0.4302434787882207,
        0.8759995623718512,
        -1.165594386642017,
        -1.3941126333682028,
        -0.8322373227890856,
        -0.5951151039027767,
        -0.4971776439301572,
        1.7497045229955792,
        0.28017323380807413,
        -1.2905947465641305,
        -0.07550501402841497,
        0.47473236888432657,
        -0.1325168117341231,
        1.7658739638137637,
        0.710818645093538,
        -0.7907229626387886,
        -0.7075876405762196,
        1.0038149372685776,
        2.028473359345326,
        -0.6577698575707834,
        -1.9997459913605813,
        1.5907811579432654,
        0.5318360781626668,
        -2.47051648815617,
        1.5589465876654822,
        -0.5743233583062546,
        -1.633348923970453,
        1.0032503053462023,
        0.3391378497468768,
        -0.19557626764349953,
        -0.3349321564064378,
        1.202325225467981,
        0.8860975248877515,
        1.8126760149032208,
        0.41455308231154864,
        1.9013204003869733,
        -0.17737983050367362,
        -1.5950953951403946,
        -1.42939436655634,
        0.5656452233018926,
        -1.3099235937928742,
        0.7857941594253011,
        0.591365567572007,
        -0.7807663474931502,
        1.890731776389755,
        -0.535340172954841,
        0.5071098420991655,
        2.134856854519375,
        0.142351905017629,
        0.7554711877605185,
        -0.06636769184075564,
        -1.4513905281644521,
        -1.7169001461488,
        -0.2587719756659009,
        0.24825805037790463,
        0.30978523174859973,
        0.6032058210504806,
        -0.04347601999586671,
        -0.7807215304939488,
        1.709807626582591,
        -0.7886242197827503,
        -0.4389885866366685,
        -0.9917138105255903,
        1.746847539173923,
        0.4986481821518202,
        0.5014522682007672,
        0.3074020367266929,
        0.33037533254123813,
        1.9316126392419348,
        -0.38552799497771556,
        -0.36233987307171905,
        0.22329090818473488,
        -1.319225176674349,
        -0.17634943918544876,
        -1.6472793620019979,
        -1.2588272080070348,
        0.1593521263408536,
        -0.5641507516695686,
        -0.5397819693095136,
        1.1382034734351327,
        -0.22022350745307673,
        1.1415056080124661,
        -0.06064670988330652,
        -0.7041550916166033,
        -0.2806903731272913,
        0.3281572984701046,
        -2.3053068253533806,
        -0.4991393792343602,
        -0.7732820648170429,
        0.03608456304544727,
        -0.04572810273658231,
        0.44009604879798747,
        1.2279348255878295,
        1.5845608207204043,
        0.6793968792330415,
        -0.891747212671477,
        -0.2847990578893203,
        0.10896067991328316,
        1.4076586213384965,
        0.7427599704941276,
        0.01114536737933961,
        0.03104154168469707,
        -0.1342099128470729,
        1.0072722229615287,
        -0.6183214963698355,
        -1.0366944993834055,
        -0.6305225954048226,
        0.29776778747496113,
        -1.6185197467798114,
        -0.1956744907211707,
        -0.45160903809195196,
        -0.6277255870249953,
        0.75790539758637,
        0.061544974789043715,
        -0.17559049203983249,
        -0.04659661211839729,
        1.2952352935897402,
        -0.24125806860919877,
        1.0488381543211898,
        0.16838538393476055,
        2.679985812741579,
        -0.5720227247429639,
        -0.059229915544166754,
        -0.06251853162447571,
        -0.2878642971188113,
        0.027281270691796162,
        -0.08664236090369733,
        0.23751684309889418,
        0.2778901434294845,
        -0.575222609395263,
        -0.0945529832581499,
        -2.146352791015626,
        0.7882846169454342,
        -1.536244782561791,
        -1.714100402092413,
        0.4628974179140946,
        1.4358345616210517,
        -0.6212780307632727,
        0.9632133686592552,
        0.06765792934910911,
        -0.28574879403299264,
        0.038462485575638965,
        2.5959302819021293,
        0.8366888555065751,
        -1.2639386034758788,
        1.05189676393624,
        2.33142693695307,
        -0.25930236469421153,
        0.6311831893782385,
        0.930084050743519,
        1.3026412419625943,
        0.8362248243058628,
        0.06173436038591295,
        -0.26336435821309323,
        -0.834104389790448,
        -1.5401575222054318,
        -0.8242418557202716,
        1.667271709552388,
        -0.8490384090916439,
        0.7837197641056147,
        0.6249470506023946,
        -0.08557101105833725,
        -1.3522816894159424,
        0.9514486860505256,
        0.8273227701322904,
        0.906180176360164,
        -0.4592876549066516,
        -0.8889795866477799,
        -1.6711845452295828,
        1.9029585698831384,
        -0.8908661313448273,
        1.212300762546878,
        -0.713994034306451,
        0.1463215265383141
      ],
      "expected_output": [
        -9.461537826168298,
        9.39182088308335,
        -2.6828644482582535,
        17.99043995746464,
        3.3236347406262743,
        -18.816902354228493,
        -11.703154273990172,
        18.472634158238325,
        2.2145756264030387,
        20.998260767549027,
        -34.10200523826619,
        -4.564397546236436,
        -32.67817461021157,
        -10.950730246999766,
        -12.736789054142097,
        -0.09622378421333326,
        -11.739928412547908,
        0.38460983254927217,
        15.084087145244023,
        50.802371397336486,
        -3.717004041570213,
        14.628478948842618,
        -12.722738127609091,
        7.138418715446693,
        -20.282891036885037,
        -21.77042457958479,
        -34.03017635537609,
        0.3574722318334718,
        -28.132994879730493,
        -20.025634025045218,
        -33.12429790524942,
        -6.025988760161377,
        3.4042773942545757,
        12.919599210028997,
        -12.612032034418451,
        7.091546630848744,
        6.542321172961104,
        -4.678107778207849,
        14.466988756108774,
        13.056006048396373,
        13.00999262705837,
        11.999440201652764,
        -23.31711929452164,
        -3.1243458857732906,
        -11.602177472518521,
        -9.581888484667072,
        -5.532941580049485,
        -16.049824834352957,
        -1.846693378447696,
        15.40465008996884,
        6.488584409468563,
        -24.12714431258165,
        22.816806277338284,
        9.502920440257771,
        24.514080595125318,
        -9.747674325735023,
        -2.8619020958874812,
        -8.95095750127211,
        22.835629873771577,
        -6.181125453861279,
        6.5128749367487115,
        8.131177912933339,
        2.506612494315475,
        -12.8883983210611,
        -11.313394943662935,
        13.873784498999338,
        -6.022268871950526,
        25.913810846235005,
        -4.667756725508486,
        -2.1613673974302845,
        -13.295650332106225,
        0.3749203237086251,
        0.24965642973387386,
        4.45630946733299,
        -33.83527927477757,
        -15.786293305295063,
        -20.323733254445155,
        -33.3477948741424,
        -22.342916517226328,
        -5.398711498760623,
        -6.069112995830561,
        16.24096394592285,
        -4.7751299275520385,
        -1.0677735910048156,
        16.141178112069316,
        -1.539834690347613,
        14.64402653230045,
        -6.5673623161199846,
        -7.380532171826163,
        -5.6123399875521685,
        14.543474224523722,
        -7.684329509305774,
        3.618567188362922,
        -2.6976515405815102,
        -4.7496026404919665,
        8.49023150780403,
        -5.938118190489846,
        2.8770879141379266,
        3.5428799891008134,
        30.125790663282288,
        -0.16335653823185503,
        24.66090247171026,
        3.250610958550018,
        3.4620915681110715,
        -5.766300762494539,
        -15.662521799600087,
        -6.557902357651645,
        -0.3861306175920275,
        -19.029163732913144,
        -8.057211474651117,
        -21.75747484529124,
        -25.49384382871914,
        3.193702564829072,
        -3.092272217053454,
        11.850931043031439,
        15.245358317363037,
        3.8197183150686698,
        10.457372196311695,
        2.640142132821035,
        8.70003693850027,
        -5.282858894339868,
        -22.50270796762497,
        -3.9250347079909607,
        12.526609629482184,
        13.370531868564154,
        -15.292795633929375,
        -16.3279081658325,
        -16.905663641968225,
        4.6534404896505075,
        -17.39271281532047,
        22.871652516094244,
        -0.8674397576393661,
        -12.12043971878128,
        19.23680323314433,
        -5.976422447604973,
        4.238726958978807,
        -9.051038738669341,
        -15.115633081251712,
        4.2752303846149635,
        21.45364807884083,
        -3.4811391771402467,
        3.312026917693731,
        -22.13070959220396,
        -6.328369912746638,
        -3.344108472007632,
        15.407115591878904,
        -8.08854510787381,
        10.839903331484729,
        -4.000359902144615,
        -5.493934575567369,
        -1.6752752228648198,
        -0.48927621876409666,
        5.333460470879122,
        -2.808284153009421,
        3.439618790618908,
        -18.6810915446245,
        18.244237895016347,
        -7.7470977887760455,
        -22.950048184443347,
        2.234872451787739,
        2.212358219024473,
        -6.373596640535157,
        17.287543177563293,
        -7.422096394425394,
        0.1822592261106528,
        14.716278293905061,
        -0.6003973725582569,
        -14.065297536214509,
        1.4682984993354113,
        -6.706827133561489,
        15.828002099955839,
        7.492701961734252,
        3.4365907187362725,
        -0.9790757873423452,
        -10.23720892108494,
        -8.467552307375378,
        5.454969429367338,
        19.341695416772936,
        -18.987445878054817,
        15.77537118673139,
        1.4884176656345358,
        9.804209684628308,
        0.19649262664025188,
        12.643014986228515,
        10.272830930072558,
        -10.688571774493822,
        -27.586709239628327,
        -12.414990596245744,
        -21.778690755710294,
        -7.791593843513125,
        -25.78890745045609,
        -13.527925053612561,
        -14.319628968136719,
        12.448311047420072,
        -16.490180059967074,
        20.78784744086678,
        13.461800981209223,
        16.549747656450236,
        3.127559282228114,
        -6.267823060175558,
        8.035281302851258,
        -24.320038835487956,
        26.497975926524873,
        -12.794430057083822,
        35.009061419491225,
        -3.7299594316101006,
        -4.495797425392865,
        -12.250242457808666,
        -15.703333970140497,
        6.974040923406963,
        -20.429151505215906,
        18.995723892171533,
        0.9583087454110412,
        -1.6518294270155602,
        -14.89839606501061,
        6.298866062281841,
        8.401837737340497,
        -12.448259620953722,
        32.58918674535027,
        -9.253409935578125,
        37.60205880864647,
        -2.024919805106533,
        6.987009975806213,
        -11.946720231488477,
        -7.396550046142727,
        -1.0752869405423768,
        10.941488236022485,
        -13.68661321403555,
        7.364516446329547,
        12.602215973567418,
        -2.1929998731375044,
        -3.8378524041425903,
        -9.598447410506607,
        -19.505604814978927,
        18.792991985795048,
        8.936040264384417,
        19.175077008873608,
        7.246801982516233,
        -12.897477827374583,
        21.172141391983285,
        -7.446016081793483,
        11.976250521838235,
        7.5524600989218404,
        1.0128890920145528,
        9.30626548611424,
        32.63830795582636,
        21.473082388670928,
        -31.423079243619934,
        -2.0030877902987845,
        -16.643171109678683,
        20.529642862518998,
        -12.973866939212906,
        4.257627140245133,
        -4.0252856979020954,
        -11.05332053698196,
        -19.530571177658096
      ],
      "weight_q_proj": [
        0.7936391830444336,
        0.261927992105484,
        1.2479798793792725,
        0.02149728126823902,
        -1.487420916557312,
        -0.2823541760444641,
        -1.9748743772506714,
        0.6025514602661133,
        -0.5353701114654541,
        0.9631789326667786,
        0.010522313416004181,
        0.0005772421136498451,
        -1.0399881601333618,
        1.8262473344802856,
        1.5104873180389404,
        -1.5804835557937622,
        -0.6182390451431274,
        1.47076416015625,
        0.4531472623348236,
        1.909881353378296,
        0.5303322076797485,
        1.183849811553955,
        -1.4767537117004395,
        0.14963260293006897,
        -1.105074167251587,
        1.4392722845077515,
        -0.7020403146743774,
        1.0487350225448608,
        0.48713356256484985,
        -0.3980145752429962,
        0.19830329716205597,
        -0.6548588871955872,
        -0.8799450993537903,
        -1.4131460189819336,
        -0.8745665550231934,
        -1.3375637531280518,
        -0.6629088521003723,
        -0.7258501052856445,
        1.6289100646972656,
        -1.6360323429107666,
        -0.1416313499212265,
        0.4212937653064728,
        -1.0423650741577148,
        -0.4901260435581207,
        0.614356279373169,
        -1.3434813022613525,
        -1.2733681201934814,
        1.8425977230072021,
        -0.5808644890785217,
        0.49255111813545227,
        -1.1061952114105225,
        0.13180659711360931,
        -1.2759664058685303,
        -0.2749811112880707,
        1.1646095514297485,
        0.10727924108505249,
        0.156677708029747,
        -0.9978985786437988,
        0.5613434314727783,
        -1.0739587545394897,
        -0.0965135470032692,
        -0.6364491581916809,
        0.13286283612251282,
        0.2889639437198639,
        0.1273898184299469,
        -0.009687020443379879,
        1.2544443607330322,
        -0.09292060881853104,
        -1.1064677238464355,
        0.5074421763420105,
        -0.2794263958930969,
        0.01598038151860237,
        -0.07612152397632599,
        0.36157914996147156,
        -0.6036215424537659,
        0.6486862301826477,
        -0.6448553800582886,
        0.2567177414894104,
        0.21610963344573975,
        0.21341057121753693,
        -0.6141861081123352,
        0.3689228296279907,
        -0.7434996366500854,
        -0.04931926727294922,
        -0.2345176339149475,
        0.8095482587814331,
        0.07563742250204086,
        -2.0099384784698486,
        0.7906924486160278,
        -1.2379121780395508,
        0.2666744291782379,
        -1.1000159978866577,
        1.3882094621658325,
        0.24011288583278656,
        0.31809473037719727,
        -0.25416725873947144,
        1.218522548675537,
        1.061833381652832,
        1.207707405090332,
        -1.8420006036758423,
        0.3774290978908539,
        1.707221269607544,
        0.6208463907241821,
        0.2638055682182312,
        0.9856211543083191,
        0.37595367431640625,
        -1.1803840398788452,
        0.544001579284668,
        -0.9383391737937927,
        0.8414127230644226,
        0.3025745451450348,
        1.6207270622253418,
        -0.3979629874229431,
        0.5794858336448669,
        -0.7623717188835144,
        -0.9306822419166565,
        0.9585750699043274,
        0.6627087593078613,
        2.8259739875793457,
        -1.1815563440322876,
        -0.2753818929195404,
        0.7626118659973145,
        -0.040378913283348083,
        0.48654887080192566,
        0.4948410391807556,
        -2.6303586959838867,
        -1.0489745140075684,
        0.21994447708129883,
        -0.8403032422065735,
        -0.4453577399253845,
        -1.034794807434082,
        -0.883923351764679,
        -1.0563952922821045,
        0.35584938526153564,
        -1.8446632623672485,
        -1.4077891111373901,
        0.013433928601443768,
        -0.30401811003685,
        1.1673402786254883,
        -0.12710343301296234,
        0.7346595525741577,
        -0.059110261499881744,
        -0.8228628635406494,
        -0.8519876003265381,
        -1.860661268234253,
        1.006510853767395,
        -0.5368613004684448,
        -0.06029542535543442,
        2.0275721549987793,
        -0.06941527128219604,
        -2.195662498474121,
        -0.2154114991426468,
        -0.7900331020355225,
        0.4824253022670746,
        -0.7824546694755554,
        0.03555949032306671,
        -1.7415188550949097,
        0.6579797863960266,
        1.0021555423736572,
        -0.1697128415107727,
        0.17695985734462738,
        -1.2911174297332764,
        2.1791799068450928,
        -1.3604329824447632,
        -1.547793984413147,
        0.9564648866653442,
        0.3828508257865906,
        -0.5076913833618164,
        -1.154685616493225,
        1.301091194152832,
        0.12962891161441803,
        -0.7769577503204346,
        -0.524124264717102,
        1.3881957530975342,
        1.0042668581008911,
        0.7263834476470947,
        0.8065303564071655,
        0.6602134108543396,
        0.8960380554199219,
        -2.9103193283081055,
        0.21814210712909698,
        -1.3484346866607666,
        0.4186439514160156,
        0.6116971969604492,
        -0.3254019021987915,
        1.7041069269180298,
        1.0581068992614746,
        0.29312822222709656,
        0.272325336933136,
        1.3166974782943726,
        1.2549183368682861,
        0.4989417493343353,
        0.5327929854393005,
        -0.47095388174057007,
        0.7049576044082642,
        -0.5569058656692505,
        1.2628188133239746,
        1.5264185667037964,
        -1.2945311069488525,
        -0.5324700474739075,
        1.0935970544815063,
        1.8676838874816895,
        0.615361213684082,
        2.2101845741271973,
        1.3580204248428345,
        -0.5397318601608276,
        0.3701068162918091,
        0.519527792930603,
        -0.5033454895019531,
        1.0359623432159424,
        1.5644701719284058,
        0.010647512972354889,
        0.4358691871166229,
        1.0336713790893555,
        1.4425431489944458,
        -0.11646390706300735,
        0.8327536582946777,
        -0.340432733297348,
        -0.18386684358119965,
        -0.02600136399269104,
        -1.541481852531433,
        0.5154828429222107,
        -0.9286903738975525,
        -1.9847445487976074,
        0.9428356289863586,
        -0.5680555105209351,
        -0.04935776814818382,
        -0.5818715691566467,
        0.3377128839492798,
        1.988450527191162,
        1.6618096828460693,
        -0.6298337578773499,
        -1.2525262832641602,
        0.7728247046470642,
        1.1861566305160522,
        0.17172925174236298,
        -0.3027280271053314,
        0.8184995651245117,
        -1.286576509475708,
        0.11460619419813156,
        0.8422231674194336,
        -0.8241494297981262,
        -1.3075116872787476,
        -0.1594284474849701,
        -2.720215082168579,
        -2.0571839809417725,
        0.4806740880012512,
        -0.8574623465538025,
        -0.391880065202713,
        1.464332103729248,
        -1.0586198568344116,
        -0.9902620315551758,
        -0.20078244805335999,
        -0.9404719471931458,
        -1.3617675304412842,
        -0.3457348346710205
      ],
      "weight_k_proj": [
        1.4774435758590698,
        -0.34752392768859863,
        0.5024393200874329,
        -0.20066338777542114,
        -0.9387317299842834,
        0.8810276985168457,
        0.10930192470550537,
        0.3533044755458832,
        -0.8000465035438538,
        0.6745810508728027,
        0.982265830039978,
        -1.3673869371414185,
        2.451322317123413,
        -1.2553682327270508,
        -0.13867227733135223,
        -2.445716381072998,
        -0.3643091917037964,
        1.634202241897583,
        -0.014504124410450459,
        -1.875376582145691,
        0.18155448138713837,
        0.18530772626399994,
        -0.6172716617584229,
        -2.080146074295044,
        0.10373539477586746,
        0.7224538922309875,
        0.513164222240448,
        0.9295433163642883,
        0.13827501237392426,
        -0.8506503701210022,
        1.0447465181350708,
        -2.064373016357422,
        -1.6594300270080566,
        -0.1476847231388092,
        0.09213493764400482,
        -1.2698564529418945,
        0.6247519850730896,
        -0.2506938576698303,
        -0.1486893892288208,
        -0.6880469918251038,
        -0.3175475299358368,
        -0.32862070202827454,
        0.4876577854156494,
        0.40179210901260376,
        -0.8997540473937988,
        0.48778244853019714,
        -0.13411667943000793,
        1.193240761756897,
        -0.08728548139333725,
        0.1238606870174408,
        0.001557155861519277,
        -1.7851017713546753,
        -1.325461506843567,
        -0.6547038555145264,
        1.6596730947494507,
        -1.8621572256088257,
        -0.7472779154777527,
        0.07784722000360489,
        -2.007093667984009,
        -0.29964613914489746,
        0.08932831138372421,
        0.3000591993331909,
        -0.1441863775253296,
        -0.22082878649234772,
        -0.7883439064025879,
        1.7930762767791748,
        0.4464132785797119,
        -1.0277695655822754,
        -0.284174382686615,
        -0.6467511057853699,
        0.826126217842102,
        -1.047178030014038,
        -1.6323565244674683,
        0.5527605414390564,
        -1.0519874095916748,
        -0.11891307681798935,
        -0.8512372970581055,
        0.28618454933166504,
        -0.5630037784576416,
        1.0356714725494385,
        0.9599889516830444,
        0.9519833326339722,
        2.4551737308502197,
        0.8004339337348938,
        -0.2645752429962158,
        0.07638047635555267,
        -0.8553820252418518,
        -0.6293780207633972,
        0.44232097268104553,
        0.8926376700401306,
        -1.6774077415466309,
        1.3316270112991333,
        -0.16262544691562653,
        0.8905388712882996,
        -1.070116639137268,
        -0.7666226625442505,
        1.0449429750442505,
        -0.09619846194982529,
        -0.7753233313560486,
        0.2707901895046234,
        -1.582280158996582,
        -0.8923856616020203,
        0.2940424084663391,
        -0.4534147381782532,
        -0.1871107965707779,
        -0.03491681069135666,
        -0.4691831171512604,
        0.6938091516494751,
        -1.5088759660720825,
        -1.207338571548462,
        1.1226587295532227,
        1.0644252300262451,
        0.005225212778896093,
        -1.6047672033309937,
        0.6052417159080505,
        1.3090850114822388,
        0.5579977631568909,
        -0.09963557124137878,
        -1.5771105289459229,
        0.83540940284729,
        -1.4225600957870483,
        0.6403084397315979,
        1.471879482269287,
        1.8028568029403687,
        2.1714775562286377,
        -0.7320538759231567,
        -0.380094438791275,
        -0.2980022430419922,
        1.3135908842086792,
        1.886850357055664,
        -1.1391757726669312,
        2.6917381286621094,
        -1.6420438289642334,
        0.05259092152118683,
        -0.34107857942581177,
        0.879266083240509,
        -0.4436616003513336,
        -0.46582740545272827,
        0.509479284286499,
        0.21910420060157776,
        -0.40342530608177185,
        -0.09389645606279373,
        0.23244354128837585,
        0.5436800718307495,
        -1.4241549968719482,
        1.1037395000457764,
        -1.2815499305725098,
        0.2174074947834015,
        0.6469516754150391,
        -0.3224475681781769,
        -2.48138427734375,
        0.15155449509620667,
        -0.17580679059028625,
        -0.5001428127288818,
        0.7533275485038757,
        -0.9656620621681213,
        -1.075170874595642,
        -0.2664198875427246,
        -0.6326590180397034,
        -0.6855633854866028,
        -1.5260432958602905,
        -0.19642016291618347,
        -0.4644867777824402,
        0.23158173263072968,
        0.7222548127174377,
        0.3019108772277832,
        0.7316771745681763,
        -1.5834022760391235,
        0.5673852562904358,
        0.0821102187037468,
        0.6491090655326843,
        -0.1426059901714325,
        0.0025748007465153933,
        -1.3587702512741089,
        0.10782032459974289,
        1.4385591745376587,
        0.2565769553184509,
        -1.5147709846496582,
        -0.30987903475761414,
        -0.0553182028234005,
        1.8006960153579712,
        0.4120948910713196,
        -1.697031021118164,
        -0.8752805590629578,
        0.8038826584815979,
        1.3888508081436157,
        -0.8253223896026611,
        0.5555181503295898,
        0.3569638729095459,
        -2.1135237216949463,
        0.4257444739341736,
        1.403667688369751,
        0.04923974350094795,
        0.6169142127037048,
        0.8573887348175049,
        -0.483586847782135,
        -0.5819288492202759,
        0.23977282643318176,
        1.0017300844192505,
        -0.8208341598510742,
        -0.1448545902967453,
        -0.05497877672314644,
        -1.324554681777954,
        -0.5215523838996887,
        -1.0594321489334106,
        -0.4463212788105011,
        0.5455447435379028,
        0.024343598634004593,
        -0.20909544825553894,
        0.5321272611618042,
        -0.04518945887684822,
        0.5215703248977661,
        0.6283702850341797,
        1.7343538999557495,
        2.5566272735595703,
        -0.07589905709028244,
        0.3295324444770813,
        0.0998605415225029,
        -1.3265821933746338,
        -0.2950842082500458,
        0.7961332201957703,
        -0.04351918026804924,
        -0.5925235152244568,
        -0.6047284007072449,
        0.27760565280914307,
        -1.1589514017105103,
        1.1589840650558472,
        -0.8930615782737732,
        1.1534768342971802,
        -0.36963707208633423,
        0.6596899032592773,
        0.8134523630142212,
        0.39114686846733093,
        0.4027807414531708,
        1.4074033498764038,
        -0.29408055543899536,
        1.322906255722046,
        -0.5836238265037537,
        0.582356333732605,
        3.005678415298462,
        -0.9347606897354126,
        -1.3559223413467407,
        0.28092777729034424,
        -0.24565257132053375,
        0.9325923919677734,
        0.16066518425941467,
        1.3737062215805054,
        -0.25813862681388855,
        0.6944612264633179,
        0.4592416286468506,
        -0.749075174331665,
        -0.4592549204826355,
        -1.0665860176086426,
        0.699212908744812,
        0.3269573450088501,
        0.9378413558006287
      ],
      "weight_v_proj": [
        1.0545814037322998,
        0.7390212416648865,
        -0.4977772831916809,
        -2.033071517944336,
        1.3409262895584106,
        1.3551185131072998,
        -0.12591560184955597,
        0.4471396505832672,
        -1.0743534564971924,
        -0.18203718960285187,
        0.6075981259346008,
        -1.3644094467163086,
        0.23397506773471832,
        -1.070902943611145,
        0.7330405116081238,
        0.6524601578712463,
        -0.5532335042953491,
        -0.7923157215118408,
        -1.7886905670166016,
        2.2081518173217773,
        1.8201237916946411,
        -0.8511158227920532,
        -0.48237931728363037,
        -0.15073594450950623,
        2.814288377761841,
        -0.05721358582377434,
        1.5401066541671753,
        0.06750412285327911,
        -0.32094189524650574,
        -1.6966830492019653,
        0.8732561469078064,
        1.8096963167190552,
        0.9885283708572388,
        -2.066526412963867,
        -0.6059421896934509,
        -0.846645176410675,
        -0.2414982169866562,
        -0.8619654774665833,
        0.8530851602554321,
        -1.0516387224197388,
        -0.34905850887298584,
        0.3989393413066864,
        0.14635150134563446,
        1.477541446685791,
        0.864780068397522,
        1.178279995918274,
        1.9356704950332642,
        -0.8545767664909363,
        0.1551421880722046,
        0.25840386748313904,
        0.6601758599281311,
        -0.5867305397987366,
        -0.5306975245475769,
        0.9546689391136169,
        -0.2135675996541977,
        1.3894572257995605,
        0.17554467916488647,
        2.0168752670288086,
        -0.2973693907260895,
        0.761540412902832,
        -0.5965065956115723,
        0.9363963603973389,
        -1.3170515298843384,
        0.2559620141983032,
        0.8685095906257629,
        0.8275172114372253,
        3.6411406993865967,
        1.3161472082138062,
        1.208362340927124,
        -0.23492030799388885,
        -1.8468937873840332,
        -1.2978171110153198,
        -0.397012859582901,
        -0.41966432332992554,
        -0.0838845819234848,
        1.9396014213562012,
        0.5872814655303955,
        0.8660117983818054,
        0.19561553001403809,
        -0.4961264729499817,
        1.8707914352416992,
        0.21178129315376282,
        -0.05975660681724548,
        -0.6209180355072021,
        0.995045006275177,
        -1.1677192449569702,
        -0.008994120173156261,
        -1.1062358617782593,
        -0.4648735225200653,
        -2.291935682296753,
        0.32749003171920776,
        0.522884726524353,
        -0.8013569712638855,
        -0.6553022265434265,
        1.4091897010803223,
        0.6968502998352051,
        1.3266624212265015,
        -1.4835491180419922,
        -1.0731534957885742,
        -0.5015528798103333,
        1.1436737775802612,
        -0.34543895721435547,
        -1.2518010139465332,
        0.20249488949775696,
        -1.4408262968063354,
        0.8848453760147095,
        -0.49984419345855713,
        0.3447422981262207,
        0.07409720867872238,
        2.269505500793457,
        1.112054467201233,
        -0.021580712869763374,
        0.3894363045692444,
        1.0563631057739258,
        0.7439519166946411,
        -1.743568778038025,
        0.13061736524105072,
        1.117469072341919,
        0.8188951015472412,
        1.547627329826355,
        -0.05612612143158913,
        -1.5870765447616577,
        -0.6454716920852661,
        -1.103184461593628,
        1.1120716333389282,
        -1.7203811407089233,
        0.3033761978149414,
        1.0790127515792847,
        1.2784466743469238,
        -1.49297297000885,
        -0.5678389668464661,
        0.9949826002120972,
        0.005012745037674904,
        -0.10218311846256256,
        0.5962397456169128,
        -0.7938524484634399,
        -0.961638331413269,
        -0.7922841906547546,
        -0.03133038431406021,
        0.5199066400527954,
        0.6740525960922241,
        -1.118775486946106,
        0.613978385925293,
        -0.09223323315382004,
        0.553185224533081,
        0.23007889091968536,
        0.7864580750465393,
        -0.12602598965168,
        -0.803399920463562,
        1.663224458694458,
        1.3762919902801514,
        -0.06450901180505753,
        0.74102383852005,
        -1.0247241258621216,
        -0.9656473398208618,
        -0.7450655102729797,
        1.6965006589889526,
        0.41634601354599,
        -0.14514142274856567,
        -1.0605785846710205,
        0.9266636371612549,
        0.7744033336639404,
        -0.6020255088806152,
        -0.3914920687675476,
        -0.9414184093475342,
        -0.3199101984500885,
        0.45172154903411865,
        -1.635286569595337,
        0.6519196033477783,
        -1.1123459339141846,
        0.8904723525047302,
        1.0109730958938599,
        -0.3396928310394287,
        2.74924898147583,
        0.28426188230514526,
        0.49072590470314026,
        0.5159269571304321,
        0.15395484864711761,
        0.34678518772125244,
        -2.0662174224853516,
        -1.1335759162902832,
        1.2460592985153198,
        -1.0769003629684448,
        -0.8753641843795776,
        0.3659627139568329,
        -0.42911988496780396,
        -0.1189751997590065,
        -1.3068797588348389,
        1.399588704109192,
        0.3533436357975006,
        0.8978103995323181,
        -0.8615468740463257,
        -0.5402225255966187,
        -0.7034087181091309,
        -0.10022296756505966,
        0.9406049251556396,
        1.2783914804458618,
        -0.09993748366832733,
        -0.4809858202934265,
        0.06285636126995087,
        -0.15379081666469574,
        2.2207820415496826,
        -0.6658887267112732,
        0.8771498799324036,
        -0.39196234941482544,
        0.454559326171875,
        -0.25089848041534424,
        -1.308166742324829,
        0.48947227001190186,
        0.5676535964012146,
        -0.4059632122516632,
        3.3694961071014404,
        -0.04152709245681763,
        0.14288629591464996,
        1.1474438905715942,
        -0.5588632225990295,
        -1.9844204187393188,
        -1.665148138999939,
        0.2892449200153351,
        0.7990659475326538,
        -1.4192488193511963,
        -0.5091249346733093,
        0.9448038339614868,
        0.0016896155430004,
        -1.124699354171753,
        0.97425377368927,
        0.6233320236206055,
        -1.2331295013427734,
        -0.020260747522115707,
        0.5591937899589539,
        -0.7357977628707886,
        -0.39433395862579346,
        -1.022059679031372,
        -0.6633043885231018,
        -0.8017518520355225,
        0.3310537338256836,
        0.2634056806564331,
        0.9652177691459656,
        0.37998130917549133,
        1.5198904275894165,
        0.1887042224407196,
        -0.808340311050415,
        -0.2888566553592682,
        0.6568995118141174,
        0.37522023916244507,
        1.4097578525543213,
        0.07098400592803955,
        -1.1566230058670044,
        0.8258552551269531,
        -0.14751318097114563,
        0.10788630694150925,
        0.38724958896636963,
        1.504984974861145,
        1.2599929571151733,
        -0.9400131106376648,
        -1.9618514776229858
      ],
      "weight_out_proj": [
        -0.3522404432296753,
        0.47547391057014465,
        -0.20444141328334808,
        0.17543065547943115,
        0.5729833245277405,
        -0.998691201210022,
        -0.23353926837444305,
        0.4369768798351288,
        -1.0005391836166382,
        -0.9458655714988708,
        -0.7010954022407532,
        1.664717197418213,
        0.8368293642997742,
        -0.49330732226371765,
        0.5714444518089294,
        -0.378820538520813,
        0.6511666178703308,
        0.04195418953895569,
        -0.4081302881240845,
        0.16257204115390778,
        -0.3859955966472626,
        0.13161899149417877,
        -0.5902217626571655,
        -1.7310254573822021,
        0.7494196891784668,
        0.9954927563667297,
        0.3199644982814789,
        -0.08268173784017563,
        0.18591997027397156,
        0.9600786566734314,
        -2.4983267784118652,
        1.1352711915969849,
        0.5400061011314392,
        -0.8472259640693665,
        0.6041374206542969,
        -1.4029273986816406,
        -0.4370795786380768,
        0.7932966351509094,
        -0.2566138803958893,
        0.07237892597913742,
        -0.26479217410087585,
        0.6667312383651733,
        0.16583672165870667,
        -0.05560505762696266,
        0.5813538432121277,
        0.600491464138031,
        1.935902714729309,
        -0.8991677761077881,
        0.44909894466400146,
        0.25456926226615906,
        -0.8401373624801636,
        -1.22040593624115,
        -0.08564493060112,
        2.067347288131714,
        1.1766369342803955,
        -0.805415689945221,
        -0.42046526074409485,
        -1.5145280361175537,
        -0.4600808620452881,
        -2.002916097640991,
        -1.5814563035964966,
        0.7796437740325928,
        -0.4425864815711975,
        -0.24897515773773193,
        0.6614416241645813,
        -0.0008913809433579445,
        0.7014859914779663,
        0.5529512166976929,
        -1.0128220319747925,
        -1.6716505289077759,
        -0.3097311556339264,
        -1.234324336051941,
        1.060337781906128,
        1.3846179246902466,
        -0.6098148226737976,
        0.26901644468307495,
        1.6515105962753296,
        1.9787241220474243,
        -0.8442506790161133,
        0.11742530763149261,
        -1.5721644163131714,
        -0.1521703600883484,
        1.9703223705291748,
        0.07435928285121918,
        0.6687675714492798,
        1.304582953453064,
        -0.7667364478111267,
        0.2423982173204422,
        -0.9582671523094177,
        -0.9136613607406616,
        0.21832014620304108,
        0.5404970049858093,
        -0.7324623465538025,
        0.9677649736404419,
        -1.632428765296936,
        -1.472533941268921,
        1.0728821754455566,
        -0.5199730396270752,
        0.9003758430480957,
        0.21256107091903687,
        0.2457634061574936,
        -1.006018877029419,
        -0.27901819348335266,
        -0.19686654210090637,
        1.8838229179382324,
        -0.5659542679786682,
        -0.04897911101579666,
        2.548668146133423,
        -0.14401444792747498,
        1.1624938249588013,
        -0.9276063442230225,
        -1.9228459596633911,
        -0.8694290518760681,
        1.3257026672363281,
        -1.5103073120117188,
        0.1687857061624527,
        0.08850428462028503,
        -1.7327868938446045,
        0.30177587270736694,
        -0.5679617524147034,
        0.3351191282272339,
        -1.0620622634887695,
        0.5569753646850586,
        -0.5698294043540955,
        -0.5561211705207825,
        -0.08443393558263779,
        1.7701714038848877,
        0.8327882885932922,
        -0.3644077777862549,
        0.7170576453208923,
        0.24655453860759735,
        0.7737472653388977,
        0.587001621723175,
        -1.5115625858306885,
        -0.6930041909217834,
        -0.12270083278417587,
        0.5776605606079102,
        -0.36843225359916687,
        0.0289983619004488,
        -0.412172794342041,
        1.5729950666427612,
        -1.4028384685516357,
        -0.8006755113601685,
        0.36710894107818604,
        0.05837075039744377,
        0.6177614331245422,
        -0.857231080532074,
        -1.223350167274475,
        0.12190306186676025,
        -0.7426316142082214,
        -0.039200421422719955,
        -0.42770451307296753,
        0.7095244526863098,
        0.1874590516090393,
        -0.9239911437034607,
        0.807378888130188,
        -0.5874960422515869,
        -1.9180108308792114,
        1.0177465677261353,
        -0.25960880517959595,
        0.35719239711761475,
        -2.6875617504119873,
        -0.38988256454467773,
        -0.6906677484512329,
        -0.5619388818740845,
        -0.792853057384491,
        -0.27872899174690247,
        1.8289740085601807,
        0.5488620400428772,
        -0.5318851470947266,
        -0.3454299569129944,
        0.29314368963241577,
        -1.2402126789093018,
        -0.0015508807264268398,
        -1.1963657140731812,
        0.36224356293678284,
        0.4191094636917114,
        0.11004079878330231,
        0.5344462990760803,
        0.5301570296287537,
        0.48125073313713074,
        -0.4043903946876526,
        -0.5318413376808167,
        0.4378255605697632,
        0.07390342652797699,
        -0.769566535949707,
        -0.3120073974132538,
        -0.16474273800849915,
        -0.7873860001564026,
        0.03015376441180706,
        2.8192169666290283,
        -0.8807716369628906,
        -0.705291748046875,
        -2.345858573913574,
        -1.4175090789794922,
        0.029968872666358948,
        1.0423904657363892,
        -1.0313897132873535,
        0.47326040267944336,
        1.5818994045257568,
        -0.4261360168457031,
        -0.4286960959434509,
        0.46138015389442444,
        -0.34435179829597473,
        0.6129037737846375,
        -0.8273881673812866,
        -0.9844491481781006,
        0.851586639881134,
        -0.3811391592025757,
        0.06723387539386749,
        1.2180603742599487,
        1.2658840417861938,
        -0.9492192268371582,
        -1.2357962131500244,
        -0.6569465398788452,
        -0.848466694355011,
        1.6960973739624023,
        -1.0287238359451294,
        0.4390163719654083,
        1.8345153331756592,
        -0.33874472975730896,
        -0.16489066183567047,
        0.7336598038673401,
        -0.49695226550102234,
        0.23392491042613983,
        0.20913149416446686,
        2.068185567855835,
        1.6893997192382812,
        0.0966508537530899,
        -2.3849806785583496,
        0.8114040493965149,
        0.3772188425064087,
        0.37855565547943115,
        0.27939310669898987,
        -1.1954476833343506,
        1.5653644800186157,
        -0.6537837386131287,
        -0.31318071484565735,
        -0.49174800515174866,
        1.2397425174713135,
        -1.030956506729126,
        -0.276108980178833,
        -1.4472239017486572,
        0.45134782791137695,
        -0.6992301940917969,
        2.0648858547210693,
        -0.2824220359325409,
        -0.9564089775085449,
        -0.9957023859024048,
        1.1154767274856567,
        -1.0264936685562134,
        1.0870156288146973,
        -0.1713045835494995,
        -0.2630474865436554,
        1.6690586805343628,
        -0.46877357363700867
      ],
      "weight_q_bias": [
        0.0,
        0.0,
        0.0,
        0.0,
        0.0,
        0.0,
        0.0,
        0.0,
        0.0,
        0.0,
        0.0,
        0.0,
        0.0,
        0.0,
        0.0,
        0.0
      ],
      "weight_k_bias": [
        0.0,
        0.0,
        0.0,
        0.0,
        0.0,
        0.0,
        0.0,
        0.0,
        0.0,
        0.0,
        0.0,
        0.0,
        0.0,
        0.0,
        0.0,
        0.0
      ],
      "weight_v_bias": [
        0.0,
        0.0,
        0.0,
        0.0,
        0.0,
        0.0,
        0.0,
        0.0,
        0.0,
        0.0,
        0.0,
        0.0,
        0.0,
        0.0,
        0.0,
        0.0
      ],
      "weight_out_bias": [
        0.0,
        0.0,
        0.0,
        0.0,
        0.0,
        0.0,
        0.0,
        0.0,
        0.0,
        0.0,
        0.0,
        0.0,
        0.0,
        0.0,
        0.0,
        0.0
      ]
    },
    {
      "op": "mha_forward",
      "tag": "causal_seq8_float32",
      "dtype": "float32",
      "batch": 1,
      "seq": 8,
      "embed_dim": 16,
      "num_heads": 4,
      "num_kv_heads": 4,
      "bias": false,
      "causal_mask": true,
      "seed": 13192176,
      "input_data": [
        0.7808935642242432,
        -0.0856551080942154,
        2.524789810180664,
        1.7150235176086426,
        0.9791799783706665,
        -1.5354363918304443,
        0.08248866349458694,
        -0.21847206354141235,
        -0.6238105893135071,
        0.9400806427001953,
        0.34470275044441223,
        -0.742213249206543,
        -1.1662343740463257,
        0.6045457124710083,
        0.7494335770606995,
        0.09210454672574997,
        1.393198847770691,
        -0.16426414251327515,
        -0.923896849155426,
        0.5597925186157227,
        -0.10564254224300385,
        1.101709246635437,
        2.84437894821167,
        0.2021387666463852,
        0.4551336467266083,
        0.4871008098125458,
        0.07764533162117004,
        -0.5657948851585388,
        0.93638676404953,
        -0.9829322695732117,
        0.6962156295776367,
        1.9265563488006592,
        0.03709248825907707,
        -0.24905802309513092,
        0.0669105127453804,
        0.6277496218681335,
        0.08653321862220764,
        0.4396016597747803,
        -0.5566573739051819,
        0.031179895624518394,
        -1.5041637420654297,
        -0.8959060311317444,
        -0.26933592557907104,
        -0.32990720868110657,
        -0.8479251861572266,
        -0.7236947417259216,
        -0.5690762400627136,
        -0.19447556138038635,
        0.8974124789237976,
        1.014958381652832,
        -0.48644429445266724,
        1.3128281831741333,
        -0.2522858679294586,
        -0.13020770251750946,
        0.544369101524353,
        0.7999547719955444,
        -0.5623692274093628,
        -2.2576749324798584,
        -0.4649865925312042,
        -0.4325070083141327,
        -0.39259016513824463,
        0.7120336294174194,
        1.6183075904846191,
        0.8956482410430908,
        0.4401131570339203,
        -0.20249000191688538,
        0.5793957114219666,
        0.26916635036468506,
        0.16186492145061493,
        -1.7757943868637085,
        -1.7380318641662598,
        0.8239201307296753,
        0.5247818231582642,
        1.0777618885040283,
        -0.7352674603462219,
        0.021915799006819725,
        -0.8801523447036743,
        -0.7927888035774231,
        1.4612709283828735,
        -0.07285040616989136,
        -0.8446077704429626,
        0.988461971282959,
        -0.6283903121948242,
        1.6012647151947021,
        0.13317006826400757,
        -1.0928479433059692,
        -0.0543387234210968,
        0.8497490286827087,
        -0.3764421343803406,
        1.1603357791900635,
        1.3534657955169678,
        0.6837522983551025,
        -1.3560316562652588,
        -1.5086108446121216,
        0.3188195824623108,
        -1.6239824295043945,
        1.19478440284729,
        0.8781847953796387,
        -0.7901369333267212,
        -0.2740616500377655,
        -1.2366904020309448,
        -1.6241661310195923,
        -1.1550613641738892,
        -0.6679452657699585,
        0.3923484683036804,
        -0.2597103416919708,
        -0.89933180809021,
        -1.6835983991622925,
        -0.48099103569984436,
        2.2365708351135254,
        -0.8417428731918335,
        -0.8020768165588379,
        1.8166122436523438,
        0.2812993824481964,
        0.6836295127868652,
        -0.7804034352302551,
        1.1382720470428467,
        0.6288359761238098,
        0.3131098449230194,
        -0.03389411419630051,
        -1.8514536619186401,
        0.43230852484703064,
        0.03128157556056976,
        0.4128275513648987,
        -0.09226853400468826,
        0.5210214257240295,
        -0.1787126660346985,
        0.07248878479003906
      ],
      "expected_output": [
        26.766830444335938,
        -7.816967010498047,
        -16.503917694091797,
        11.046514511108398,
        21.632051467895508,
        -14.216944694519043,
        5.586696624755859,
        -6.6481099128723145,
        -0.5544883608818054,
        -15.70199966430664,
        12.153992652893066,
        -0.22290118038654327,
        -6.362628936767578,
        2.633197546005249,
        -12.292821884155273,
        -38.58640670776367,
        -24.137741088867188,
        -16.09035873413086,
        21.537803649902344,
        1.3094556331634521,
        26.933061599731445,
        -26.52513313293457,
        5.71840763092041,
        26.469791412353516,
        13.49494743347168,
        -9.873079299926758,
        -9.48441219329834,
        5.567322254180908,
        -8.390584945678711,
        8.559191703796387,
        -4.894466400146484,
        -18.931421279907227,
        -23.973209381103516,
        15.573573112487793,
        13.594963073730469,
        -9.198497772216797,
        -2.6303212642669678,
        -16.074813842773438,
        -4.04412841796875,
        42.64598083496094,
        -3.0070366859436035,
        1.1420964002609253,
        -16.881345748901367,
        8.171329498291016,
        -4.13060998916626,
        16.384422302246094,
        6.600420951843262,
        -5.901449680328369,
        -27.42929458618164,
        -12.513776779174805,
        32.4886474609375,
        6.344324588775635,
        37.141963958740234,
        -18.456323623657227,
        9.069658279418945,
        37.705963134765625,
        1.3872796297073364,
        -1.0762839317321777,
        -21.074377059936523,
        -0.18550243973731995,
        6.367199420928955,
        1.4500538110733032,
        -5.42764139175415,
        3.192411422729492,
        -2.1414902210235596,
        -8.344738960266113,
        6.353237152099609,
        4.032148838043213,
        22.072113037109375,
        -16.39910125732422,
        9.37677001953125,
        24.704391479492188,
        2.183939218521118,
        1.3973535299301147,
        -10.637836456298828,
        4.057244300842285,
        11.364428520202637,
        16.034887313842773,
        1.1172345876693726,
        -11.33456039428711,
        12.91411018371582,
        25.659521102905273,
        -6.911340236663818,
        0.23119312524795532,
        5.336954116821289,
        -4.391227722167969,
        -9.758151054382324,
        10.336827278137207,
        -2.9761617183685303,
        2.751730442047119,
        5.925379753112793,
        12.997364044189453,
        6.968291282653809,
        8.007223129272461,
        -1.2465876340866089,
        -7.392963409423828,
        -6.617703437805176,
        34.82329177856445,
        10.065982818603516,
        -6.8384785652160645,
        -4.017874717712402,
        -7.196271896362305,
        -12.246447563171387,
        -2.9109268188476562,
        1.3747334480285645,
        -3.479982852935791,
        29.268884658813477,
        23.763734817504883,
        14.109935760498047,
        15.316516876220703,
        13.547792434692383,
        22.27657699584961,
        14.117443084716797,
        -20.25314712524414,
        15.682015419006348,
        23.166276931762695,
        28.15834617614746,
        9.821019172668457,
        -1.9240666627883911,
        -25.755197525024414,
        -16.10592269897461,
        2.0602312088012695,
        -4.654414653778076,
        -11.41140365600586,
        -12.828628540039062,
        -38.86779022216797,
        -4.47205924987793,
        -0.17053985595703125
      ],
      "weight_q_proj": [
        1.1876904964447021,
        -0.299284964799881,
        0.0674506425857544,
        0.3550063967704773,
        -0.4145755469799042,
        -2.0456578731536865,
        -0.09440252184867859,
        -0.9120752811431885,
        0.9857744574546814,
        0.4759964644908905,
        1.9248367547988892,
        0.14231567084789276,
        -0.22177879512310028,
        0.6544676423072815,
        -2.355602502822876,
        -0.22012265026569366,
        1.4297287464141846,
        -2.120365619659424,
        1.3517200946807861,
        0.254203736782074,
        0.00895040575414896,
        -1.3629519939422607,
        1.9536749124526978,
        -0.536123514175415,
        0.6152791976928711,
        1.0816243886947632,
        1.3090238571166992,
        0.9762318730354309,
        0.7076926827430725,
        0.29514726996421814,
        0.4352620542049408,
        -1.4619159698486328,
        0.9450852870941162,
        1.3487454652786255,
        0.18066175282001495,
        0.2953875958919525,
        0.17934443056583405,
        0.0017558203544467688,
        0.0045319912023842335,
        0.7642779350280762,
        0.1368371844291687,
        -0.0038064722903072834,
        -0.24724125862121582,
        -1.0118050575256348,
        -0.6837643980979919,
        -0.3638881742954254,
        0.2843357026576996,
        -0.775136411190033,
        0.05941084027290344,
        0.6510331630706787,
        0.08724506199359894,
        -0.8387607932090759,
        0.0024645652156323195,
        0.316497802734375,
        1.2799103260040283,
